%YAML:1.0
my_svm: !!opencv-ml-svm
   svm_type: C_SVC
   kernel: { type:LINEAR }
   C: 2.6699999999999999e+000
   term_criteria: { epsilon:1.1920928955078125e-007, iterations:1000 }
   var_all: 94
   var_count: 94
   class_count: 14
   class_labels: !!opencv-matrix
      rows: 1
      cols: 14
      dt: i
      data: [ 1, 2, 3, 4, 5, 6, 7, 8, 9, 10, 11, 12, 13, 14 ]
   sv_total: 91
   support_vectors:
      - [ -4.44618948e-002, -2.39142567e-001, -1.81873441e-001,
          -2.95165777e-001, 7.54174124e-003, 8.06577783e-003,
          8.07274040e-003, 9.27415770e-003, 8.08160938e-003,
          8.15855246e-003, 8.09072703e-003, 2.86954064e-002,
          8.08274467e-003, 1.55187268e-002, 8.09072703e-003,
          2.44488381e-002, -2.41741687e-002, 1.70336634e-001,
          2.53667515e-002, 6.88097700e-002, 9.24952142e-003,
          3.56329054e-001, 1.26044024e-002, -2.16987959e-004,
          5.44067845e-002, -4.29745810e-003, 3.46682258e-002,
          -7.42549747e-002, 1.75301041e-002, -5.12663126e-002,
          2.84796096e-002, -4.13555512e-003, 4.65687327e-002,
          -5.33192977e-003, 3.16058137e-002, -7.19520673e-002,
          1.91657748e-002, -5.15628569e-002, 2.70141922e-002,
          -1.59409712e-003, 5.41695170e-002, -5.10662375e-003,
          3.10530569e-002, -7.38999844e-002, 1.65223219e-002,
          -5.24586886e-002, 2.76227817e-002, 4.08175110e-004,
          5.88476360e-002, -3.80433840e-003, 3.41217928e-002,
          -7.78113231e-002, 1.16713932e-002, -5.38378805e-002,
          2.93667279e-002, 2.87130591e-003, 6.16513044e-002,
          -2.86190654e-003, 3.56679708e-002, -7.94815272e-002,
          1.04087004e-002, -5.45510948e-002, 3.08462977e-002,
          4.93516098e-004, 6.14936315e-002, -3.47628351e-003,
          3.68745551e-002, -8.04318860e-002, 9.71021689e-003,
          -5.45571558e-002, 3.13268751e-002, -1.37358182e-003,
          5.57274036e-002, -4.19835560e-003, 3.65715511e-002,
          -7.82247111e-002, 1.26912771e-002, -5.33988923e-002,
          3.17164287e-002, -1.60220126e-003, 5.50042875e-002,
          -4.26797150e-003, 3.70269045e-002, -7.65325129e-002,
          1.47080468e-002, -5.21160737e-002, 3.05923242e-002,
          -6.12531672e-004, 2.44631302e-002, 2.05895491e-002,
          -1.10095879e-002, -1.11830123e-002, -1.10651962e-002,
          -1.11823762e-002 ]
      - [ -3.62980179e-002, -4.22144309e-002, -2.06552465e-002,
          -1.40495509e-001, -1.23749979e-001, -1.48133799e-001,
          -9.40287337e-002, 7.80532788e-003, 4.36151447e-003,
          8.51964112e-003, 8.52735061e-003, 1.28064239e-002,
          7.96540082e-003, 1.01998700e-002, 8.52735061e-003,
          3.89443375e-002, 9.16157942e-003, 8.25790316e-002,
          1.96070503e-002, 1.25728577e-001, 2.13274471e-002,
          2.23979175e-001, 1.55356387e-002, 7.83247221e-003,
          2.55301874e-003, 8.36406555e-003, 2.14718468e-003,
          -5.66375209e-003, 1.55221019e-002, -1.48928948e-002,
          -9.26668383e-003, 4.73031448e-003, -2.66920123e-003,
          7.15778163e-003, -4.99579881e-004, -5.49678737e-003,
          1.57841742e-002, -1.47213703e-002, -9.00696963e-003,
          3.97518743e-003, -4.13753698e-003, 6.50248397e-003,
          -1.72139413e-003, -5.56832366e-003, 1.58646088e-002,
          -1.47419637e-002, -9.07915272e-003, 4.44091111e-003,
          -2.81070382e-003, 7.00293761e-003, -4.50190972e-004,
          -5.72051713e-003, 1.55903157e-002, -1.47469873e-002,
          -8.73992871e-003, 7.28694675e-003, 1.20711303e-003,
          8.09503905e-003, 1.67133077e-003, -6.31463761e-003,
          1.51007241e-002, -1.49854487e-002, -8.92711058e-003,
          5.93763404e-003, 1.76267244e-003, 7.90835917e-003,
          2.69520981e-003, -6.52992353e-003, 1.47397630e-002,
          -1.53069608e-002, -9.40415543e-003, 5.86891826e-003,
          2.03799899e-003, 7.76194083e-003, 3.15255835e-003,
          -6.19675871e-003, 1.50083853e-002, -1.55136166e-002,
          -1.00079868e-002, 6.27357140e-003, 2.92101502e-003,
          8.11321381e-003, 3.45464167e-003, -5.74205676e-003,
          1.52615197e-002, -1.52024655e-002, -9.66104865e-003,
          5.71586384e-007, -2.66973017e-004, 5.32803751e-005,
          5.32803751e-005, 5.32803751e-005, 5.32803751e-005,
          5.32803751e-005 ]
      - [ -5.45975193e-003, -6.46887243e-001, -5.75306825e-002,
          -1.40608430e-001, -7.19192028e-002, -7.64818266e-002,
          -7.65425116e-002, -1.16453521e-001, -7.70389214e-002,
          -7.65707940e-002, -7.65425116e-002, -6.30017757e-001,
          -8.08541030e-002, -8.99006575e-002, -7.65435770e-002,
          2.46386722e-001, -9.03292075e-002, 1.16267633e+000,
          -7.65425116e-002, 1.92373559e-001, -9.50507894e-002,
          1.03007793e+000, -7.02402815e-002, -7.94198886e-002,
          -4.55763889e-003, -1.01977453e-001, -2.28115637e-002,
          2.09714934e-001, -1.75715461e-001, 2.37077653e-001,
          2.23175988e-001, -6.94280639e-002, 2.06881482e-002,
          -1.00838646e-001, -3.91546078e-002, 1.97581813e-001,
          -1.94406584e-001, 2.34544724e-001, 2.27675006e-001,
          -7.83827975e-002, -7.74244592e-002, -1.10194422e-001,
          -1.65736660e-001, 1.75330281e-001, -2.67222971e-001,
          2.35012650e-001, 2.50130147e-001, -8.54912922e-002,
          -1.68621525e-001, -1.24693267e-001, -3.05702001e-001,
          1.96450934e-001, -2.03627720e-001, 2.42918760e-001,
          2.72763699e-001, -1.10166065e-001, -3.19490761e-001,
          -1.36624843e-001, -3.79494220e-001, 2.17282832e-001,
          -1.62625477e-001, 2.41425052e-001, 2.68328458e-001,
          -8.40311944e-002, -1.41030058e-001, -1.25405386e-001,
          -2.85714000e-001, 2.10305229e-001, -1.68858796e-001,
          2.37169713e-001, 2.56772667e-001, -7.64382109e-002,
          -6.06389008e-002, -1.14899985e-001, -1.86282188e-001,
          1.86771378e-001, -2.36515224e-001, 2.32348129e-001,
          2.42739439e-001, -8.11790451e-002, -5.31091504e-002,
          -1.05973937e-001, -7.95534998e-002, 1.95196256e-001,
          -2.03733042e-001, 2.37349376e-001, 2.38417864e-001,
          8.61413684e-003, -4.07724362e-003, -1.80335145e-003,
          6.61066268e-003, -3.62904603e-003, -2.06526369e-003,
          -3.64996376e-003 ]
      - [ -6.93607703e-002, -6.67788088e-002, -8.17124248e-002,
          -2.53269076e-001, -7.91186467e-002, -8.17449242e-002,
          -8.17124248e-002, -1.07655175e-001, -8.16892534e-002,
          -8.17124248e-002, -8.17124248e-002, -1.07815363e-001,
          -8.18783194e-002, -8.17124248e-002, -8.17124248e-002,
          3.93704712e-001, -8.55643600e-002, 4.10124063e-001,
          -8.17124248e-002, -1.27332495e-003, -7.21429586e-002,
          9.36795115e-001, -8.03458095e-002, -2.20333673e-002,
          1.28246665e-001, -3.36019248e-002, 1.12994067e-001,
          -9.06466972e-003, -1.40181720e-001, 5.56216910e-002,
          1.80601791e-001, -3.42260860e-002, -5.86197432e-003,
          -4.83980775e-002, -4.37559895e-002, 1.28947676e-003,
          -1.30413011e-001, 5.76163009e-002, 1.76915884e-001,
          -5.87403513e-002, -1.74700826e-001, -6.81205466e-002,
          -2.06651524e-001, 8.94836430e-003, -1.20653220e-001,
          6.06889203e-002, 1.80342913e-001, -7.00539276e-002,
          -2.28188038e-001, -7.31146932e-002, -2.31620207e-001,
          4.07113042e-003, -1.25239015e-001, 6.00197278e-002,
          1.77018896e-001, -4.92232256e-002, -9.59698558e-002,
          -5.94937876e-002, -1.21056542e-001, -2.34311121e-003,
          -1.37724921e-001, 5.43048047e-002, 1.69453621e-001,
          -2.33494733e-002, 7.77056739e-002, -3.78494747e-002,
          5.08191064e-002, -1.14426212e-002, -1.49177089e-001,
          4.90458719e-002, 1.66563675e-001, -1.41068436e-002,
          1.62208736e-001, -2.67984420e-002, 1.55464232e-001,
          -2.01505739e-002, -1.54324040e-001, 5.02866805e-002,
          1.81961372e-001, -1.19688176e-002, 1.97374836e-001,
          -2.56431196e-002, 1.80713624e-001, -2.05799453e-002,
          -1.54856965e-001, 5.36501855e-002, 1.86750025e-001,
          -1.55873895e-002, 2.56478757e-001, 1.75551064e-002,
          -5.77277057e-002, -6.73139393e-002, -6.60768822e-002,
          -6.73280880e-002 ]
      - [ -2.47987676e-002, -1.24561548e-001, -1.36559650e-001,
          -4.75500338e-002, -1.93988718e-002, -1.08888261e-002,
          -1.08888261e-002, -1.54730910e-002, -1.98134258e-002,
          -1.08612999e-002, -1.08888261e-002, -2.03749281e-003,
          -5.92770539e-002, -7.87001476e-003, -1.08888261e-002,
          3.81567627e-002, -1.54217910e-002, 8.91735777e-002,
          1.99943222e-003, 1.24577254e-001, 1.18618121e-003,
          2.74976045e-001, -2.89090746e-003, 3.25762364e-003,
          3.39411236e-002, -2.23237337e-004, 2.14392357e-002,
          -3.25512290e-002, 3.39977145e-002, -5.14193065e-002,
          -6.25744229e-003, 1.90462117e-004, 3.18856649e-002,
          -1.19194877e-003, 1.94754992e-002, -3.24703641e-002,
          3.41489427e-002, -5.14179766e-002, -6.15020050e-003,
          -1.49477943e-004, 3.13434526e-002, -1.65691681e-003,
          1.92834586e-002, -3.25564407e-002, 3.44341435e-002,
          -5.17302938e-002, -6.60497975e-003, 6.64457970e-004,
          3.36026102e-002, -6.63896499e-004, 2.19778363e-002,
          -3.32668163e-002, 3.36475484e-002, -5.15486151e-002,
          -6.09576888e-003, 4.18117223e-003, 3.79950926e-002,
          5.35424042e-004, 2.47736089e-002, -3.33528668e-002,
          3.34819593e-002, -5.16000278e-002, -6.23458857e-003,
          1.42512668e-003, 3.73191424e-002, -1.02147533e-004,
          2.60951873e-002, -3.38587202e-002, 3.29169370e-002,
          -5.18667549e-002, -6.71021361e-003, 3.66256834e-004,
          3.48125100e-002, -9.88393091e-004, 2.42145043e-002,
          -3.35116386e-002, 3.35009433e-002, -5.22917695e-002,
          -7.47378357e-003, 6.53284718e-004, 3.47132385e-002,
          -7.68092694e-004, 2.28432175e-002, -3.32837217e-002,
          3.33834775e-002, -5.17704822e-002, -6.73274742e-003,
          -7.08110965e-005, 2.75053224e-003, -5.35945117e-004,
          -5.35945117e-004, -5.35945117e-004, -5.35945117e-004,
          -5.35945117e-004 ]
      - [ 3.69962975e-002, -5.05608976e-001, 1.30180595e-002,
          -4.58848387e-001, 4.41544762e-006, -4.99695307e-004,
          5.64932590e-004, -9.10809115e-002, 2.40049558e-004,
          1.00165722e-003, 5.64932590e-004, -2.54028916e-001,
          -2.33503385e-003, 8.83123465e-003, 5.64932590e-004,
          -1.14165701e-001, -8.07230249e-002, 6.59592330e-001,
          5.79878688e-004, 6.09631166e-002, 1.00212209e-001,
          6.13391995e-001, 1.07647395e-002, -3.74746993e-002,
          1.89127058e-001, -6.34052306e-002, 9.18563753e-002,
          -1.88217103e-001, -8.55239481e-002, -7.24262670e-002,
          1.84731290e-001, -3.42808366e-002, 1.97480127e-001,
          -6.29857630e-002, 8.20463449e-002, -1.90701142e-001,
          -8.77102390e-002, -7.44218230e-002, 1.80199623e-001,
          -3.25422212e-002, 2.00515836e-001, -6.37103245e-002,
          7.29034543e-002, -1.94370776e-001, -8.72560591e-002,
          -7.65240490e-002, 1.72115177e-001, -3.92122939e-002,
          1.81830630e-001, -6.60396069e-002, 7.28714690e-002,
          -1.94247857e-001, -8.08912218e-002, -7.75748789e-002,
          1.62985221e-001, -4.67104539e-002, 1.54508606e-001,
          -6.67925030e-002, 7.74191692e-002, -1.92187846e-001,
          -7.87661746e-002, -7.84029812e-002, 1.59849167e-001,
          -3.29110995e-002, 2.14871496e-001, -6.30267039e-002,
          9.46609527e-002, -2.03523099e-001, -9.58453715e-002,
          -7.87490681e-002, 1.66117445e-001, -3.35627981e-002,
          2.11054236e-001, -6.05424233e-002, 1.10013224e-001,
          -1.98330551e-001, -9.40612853e-002, -7.55096972e-002,
          1.79630801e-001, -3.55587900e-002, 2.08907515e-001,
          -6.22019060e-002, 1.02555610e-001, -1.88523456e-001,
          -8.57653990e-002, -7.28803352e-002, 1.85117364e-001,
          -9.08839051e-003, 1.80294514e-002, 7.00600371e-002,
          -2.10628081e-002, -1.92335937e-002, -1.94788948e-002,
          -1.92257259e-002 ]
      - [ -1.40275076e-001, 1.52906492e-001, -2.09759027e-002,
          -1.98231235e-001, -2.26092443e-001, -2.32344687e-001,
          -2.32422844e-001, -2.32123211e-001, -2.32360885e-001,
          -2.32422844e-001, -2.32422844e-001, -2.34297365e-001,
          -2.32366890e-001, -2.33099028e-001, -2.32422844e-001,
          1.45971632e+000, -2.30387002e-001, 4.85118449e-001,
          -2.32422844e-001, 4.05496597e-001, -1.39651164e-001,
          8.33012998e-001, 1.78067937e-001, -2.31100351e-001,
          1.35744169e-001, -2.80052334e-001, 7.36468434e-002,
          2.96638608e-001, 9.67725590e-002, 7.24427253e-002,
          2.55154759e-001, -2.47687176e-001, 9.59712081e-003,
          -2.90781558e-001, -4.84583341e-002, 2.96218365e-001,
          6.58598319e-002, 6.73382133e-002, 2.31365070e-001,
          -2.62174845e-001, -1.17175348e-001, -3.00663859e-001,
          -1.57417521e-001, 2.85273254e-001, -6.17727265e-002,
          5.51451631e-002, 1.81467742e-001, -2.42720678e-001,
          -8.44670460e-002, -2.94332623e-001, -1.40793964e-001,
          2.71624267e-001, -1.13646396e-001, 5.63739501e-002,
          1.67231411e-001, -2.32517198e-001, 1.14745516e-002,
          -2.86735296e-001, -7.41922930e-002, 2.58390337e-001,
          -1.32125899e-001, 5.03559858e-002, 1.54092491e-001,
          -2.33629882e-001, 3.73220071e-002, -2.81779259e-001,
          1.73658319e-002, 2.60305732e-001, -6.62083700e-002,
          4.80358452e-002, 1.68021381e-001, -2.46980682e-001,
          7.18182623e-002, -2.80112833e-001, 9.90348682e-002,
          2.67726660e-001, -2.19815653e-002, 4.77856994e-002,
          1.86614901e-001, -2.40235835e-001, 1.35599196e-001,
          -2.76619226e-001, 1.43264219e-001, 2.87796259e-001,
          7.98606202e-002, 6.60498887e-002, 2.37555191e-001,
          -3.31743471e-002, 5.30428529e-001, 4.27847095e-002,
          -1.26941592e-001, -1.38045028e-001, -1.37087792e-001,
          -1.37964725e-001 ]
      - [ 2.59183766e-003, -1.28940433e-001, -2.39758343e-001,
          -6.47143321e-003, -6.79597072e-003, -6.78194687e-003,
          -6.78194687e-003, -6.54588500e-003, -6.78194687e-003,
          -6.75858371e-003, -6.78194687e-003, -7.80993942e-005,
          -6.78194687e-003, -4.22459515e-003, -6.78194687e-003,
          2.78770495e-002, -6.17872970e-003, 6.33425936e-002,
          2.49788328e-003, 9.76088569e-002, 3.11222184e-003,
          2.50486851e-001, -1.07356370e-003, 1.21262996e-003,
          2.03657914e-002, 1.28134023e-004, 1.42753096e-002,
          -1.55463498e-002, 1.64106581e-002, -2.59993877e-002,
          -7.79973855e-003, 1.44504273e-004, 1.76701397e-002,
          -1.77649650e-004, 1.31965550e-002, -1.55251492e-002,
          1.65254846e-002, -2.58287508e-002, -7.53216725e-003,
          3.66496650e-004, 1.84027143e-002, -2.80803593e-004,
          1.26072746e-002, -1.52424360e-002, 1.70222037e-002,
          -2.57835165e-002, -7.46262865e-003, 5.24341012e-004,
          1.92342717e-002, -1.23161226e-004, 1.30148223e-002,
          -1.54173402e-002, 1.66017357e-002, -2.57627554e-002,
          -7.23181246e-003, 1.51478848e-003, 2.03040894e-002,
          1.89629849e-004, 1.33048631e-002, -1.55576235e-002,
          1.64842773e-002, -2.59141866e-002, -7.43882637e-003,
          6.96687552e-004, 1.91451367e-002, -5.73272446e-005,
          1.28837200e-002, -1.59023106e-002, 1.59825664e-002,
          -2.62250397e-002, -7.89095182e-003, 3.47651279e-004,
          1.82003900e-002, -1.78587361e-004, 1.30254924e-002,
          -1.57114044e-002, 1.62346419e-002, -2.64590830e-002,
          -8.39217845e-003, 4.73364315e-004, 1.94339622e-002,
          -7.38823001e-005, 1.39620276e-002, -1.58650763e-002,
          1.59240607e-002, -2.62564495e-002, -8.17385130e-003,
          -4.97532164e-005, 1.36402680e-003, -3.74266645e-004,
          -2.39689311e-004, -2.33496219e-004, -2.33323241e-004,
          -2.33496219e-004 ]
      - [ -6.39489517e-002, -2.66438723e-001, 9.58173275e-001,
          -2.68269718e-001, 9.29143503e-002, 9.21311527e-002,
          9.26508009e-002, 1.39187664e-001, 9.28394645e-002,
          9.30514708e-002, 9.26508009e-002, 1.41410515e-001,
          9.27637443e-002, 9.55797955e-002, 9.26508009e-002,
          3.11826557e-001, 9.33468714e-002, 5.20333946e-001,
          9.26646218e-002, -4.74666089e-001, -1.46503222e+000,
          -7.30836689e-001, 1.75016284e-001, 4.29849997e-002,
          1.30016476e-001, 2.03538872e-002, 5.22966832e-002,
          -5.15392423e-002, 2.93856878e-002, -2.87150424e-002,
          -1.15310892e-001, 4.21209224e-002, 1.34201497e-001,
          2.14309953e-002, 4.81465682e-002, -3.95357907e-002,
          5.79041317e-002, -1.70300994e-002, -9.13127363e-002,
          4.07406949e-002, 1.07415564e-001, 1.65832471e-002,
          -8.29907414e-003, -3.63296717e-002, 7.11825341e-002,
          -5.63811418e-003, -6.48770556e-002, 3.52122113e-002,
          3.90233435e-002, 9.54054762e-003, -8.59466940e-002,
          -2.79831365e-002, 9.48124155e-002, 2.85398192e-003,
          -3.70030217e-002, 3.48447189e-002, 4.92834952e-003,
          4.86625032e-003, -1.26170442e-001, -4.32069972e-002,
          7.48181120e-002, -1.61102926e-003, -4.31931466e-002,
          2.79123932e-002, 3.30555066e-002, 4.24973806e-003,
          -8.82004201e-002, -4.24932986e-002, 6.17807098e-002,
          -1.59514714e-002, -7.40643144e-002, 2.26485599e-002,
          3.94010730e-002, 6.61097141e-003, -3.65079753e-002,
          -4.74375226e-002, 3.63442227e-002, -3.31730023e-002,
          -1.15993433e-001, 2.36749165e-002, 5.31071238e-002,
          1.26859704e-002, 1.31584452e-002, -4.64414544e-002,
          3.09560075e-002, -3.45584750e-002, -1.22725949e-001,
          -1.19509818e-002, -1.24264196e-001, 2.89357807e-002,
          2.97179427e-002, 2.55360845e-002, 2.65007839e-002,
          2.55246852e-002 ]
      - [ -5.32760285e-002, -1.86605394e-001, -1.81957364e-001,
          -1.71506424e-002, -1.60836615e-002, -1.58503707e-002,
          -1.58240609e-002, -1.57914385e-002, -1.58520192e-002,
          -1.58080012e-002, -1.58240609e-002, -8.39019846e-003,
          -1.58311743e-002, -1.29849780e-002, -1.58240609e-002,
          3.07908729e-002, -1.48720359e-002, 8.70240629e-002,
          -8.23550858e-004, 1.47926837e-001, 1.85099756e-003,
          3.54238272e-001, -3.08199157e-003, -5.72400226e-004,
          1.52234742e-002, -2.74588517e-003, 5.82268229e-003,
          7.26569793e-004, 2.11862810e-002, -1.96297504e-002,
          -2.10250374e-002, -1.57665228e-003, 1.34659866e-002,
          -2.91849906e-003, 5.74450567e-003, 6.29295420e-004,
          2.11738925e-002, -1.95076037e-002, -2.07566470e-002,
          -1.39907445e-003, 1.50521845e-002, -2.91096093e-003,
          7.04941666e-003, 6.99822500e-004, 2.14447640e-002,
          -1.96816865e-002, -2.09920313e-002, -1.13910658e-003,
          1.68709531e-002, -2.53654458e-003, 9.28819086e-003,
          2.44035240e-004, 2.07244419e-002, -1.96006242e-002,
          -2.07930487e-002, -2.81980931e-004, 1.75863337e-002,
          -2.14136136e-003, 1.06081171e-002, 1.05071296e-004,
          2.06218734e-002, -1.96618233e-002, -2.10174415e-002,
          -9.59401019e-004, 1.71245150e-002, -2.41688569e-003,
          9.94668063e-003, -2.97494669e-004, 1.99392196e-002,
          -2.00355891e-002, -2.16061734e-002, -1.43204816e-003,
          1.52358217e-002, -2.80693383e-003, 8.39762576e-003,
          2.33352199e-004, 2.04128120e-002, -2.04090904e-002,
          -2.22717598e-002, -1.35186722e-003, 1.56025458e-002,
          -2.81294342e-003, 7.20666582e-003, 2.90159776e-004,
          2.03379001e-002, -2.00144779e-002, -2.16924138e-002,
          -8.47214615e-005, 3.57986870e-003, -7.16865296e-004,
          -6.94613613e-004, -6.94557617e-004, -6.94557617e-004,
          -6.94557617e-004 ]
      - [ -2.43044440e-002, -1.48558632e-001, -2.42673129e-001,
          -5.08945528e-003, -5.00433473e-003, -5.01448568e-003,
          -5.00452099e-003, -5.92747005e-003, -5.00452099e-003,
          -4.99837287e-003, -5.00452099e-003, -9.48189199e-003,
          -5.00452099e-003, -2.56188656e-003, -5.00452099e-003,
          2.80607156e-002, -4.37661400e-003, 6.62709624e-002,
          4.65513393e-003, 1.00377686e-001, 6.64208224e-003,
          2.72389501e-001, 4.61724959e-003, 7.47625995e-003,
          1.07886288e-002, 7.51866866e-003, 7.84437358e-003,
          -1.43054305e-002, 1.71910767e-002, -2.11678389e-002,
          -7.42373383e-003, 6.04653126e-003, 9.95295495e-003,
          6.97983894e-003, 7.10643455e-003, -1.43139586e-002,
          1.73628759e-002, -2.10608747e-002, -7.11172679e-003,
          5.40216593e-003, 7.98154250e-003, 6.49703760e-003,
          5.52784745e-003, -1.44485654e-002, 1.74624454e-002,
          -2.10908167e-002, -7.03637954e-003, 5.63210156e-003,
          8.11797287e-003, 6.53313985e-003, 4.38549882e-003,
          -1.45446612e-002, 1.71075780e-002, -2.11884491e-002,
          -6.62427070e-003, 7.19354115e-003, 8.08079727e-003,
          7.03111710e-003, 4.04061144e-003, -1.48425093e-002,
          1.69019997e-002, -2.13496499e-002, -6.77087670e-003,
          5.41540887e-003, 6.99319690e-003, 6.42048288e-003,
          3.86405946e-003, -1.47824017e-002, 1.66936461e-002,
          -2.14688163e-002, -7.25294417e-003, 4.74292692e-003,
          5.23603708e-003, 6.08805660e-003, 4.04372532e-003,
          -1.44776292e-002, 1.69985164e-002, -2.15586275e-002,
          -7.94239994e-003, 5.01859793e-003, 6.78578671e-003,
          6.58780010e-003, 6.06104964e-003, -1.42112393e-002,
          1.70009676e-002, -2.13769879e-002, -7.76253128e-003,
          5.83429937e-005, -2.45899335e-003, -1.16218624e-004,
          6.07296650e-004, 6.36042154e-004, 6.37484773e-004,
          6.36050536e-004 ]
      - [ -7.21785426e-003, -2.21128538e-001, -1.49199978e-001,
          -1.52430926e-002, -1.66007653e-002, -1.63554382e-002,
          -1.63554382e-002, -1.54942796e-002, -1.63611937e-002,
          -1.62702091e-002, -1.63554382e-002, 8.09647702e-003,
          -1.63617302e-002, -7.02616246e-003, -1.63554382e-002,
          6.39807358e-002, -1.58939399e-002, 9.79171395e-002,
          -9.11851414e-003, 8.77948403e-002, -1.00434292e-002,
          3.28498751e-001, -4.90652677e-003, 1.31340552e-004,
          2.28776094e-002, -2.02869903e-003, 1.35969501e-002,
          -3.55365425e-002, 2.48721073e-004, -2.36461740e-002,
          2.64840238e-002, -1.04616897e-003, 2.14480776e-002,
          -2.30017351e-003, 1.34503581e-002, -3.50834765e-002,
          9.44164523e-004, -2.32771095e-002, 2.70309597e-002,
          -1.57639233e-003, 2.01641824e-002, -2.63127568e-003,
          1.22503191e-002, -3.45234051e-002, 1.71797001e-003,
          -2.30786931e-002, 2.74676587e-002, -1.03961222e-003,
          2.19120998e-002, -2.41142837e-003, 1.26603339e-002,
          -3.46923433e-002, 1.69944693e-003, -2.32590716e-002,
          2.75164824e-002, -2.11356673e-005, 2.18719523e-002,
          -2.07189145e-003, 1.30201885e-002, -3.52591127e-002,
          1.07059767e-003, -2.35032048e-002, 2.72060465e-002,
          -8.65800132e-004, 2.25617569e-002, -2.42258213e-003,
          1.26387393e-002, -3.57300825e-002, 2.74949765e-004,
          -2.39347238e-002, 2.65789684e-002, -1.81552535e-003,
          1.96614992e-002, -2.61076796e-003, 1.28786881e-002,
          -3.58038247e-002, -1.30722867e-004, -2.41470393e-002,
          2.60604471e-002, -9.24414140e-004, 2.25560516e-002,
          -2.29418022e-003, 1.38459150e-002, -3.58519815e-002,
          -1.80083443e-004, -2.40554400e-002, 2.59265713e-002,
          -3.14819445e-005, -3.68806737e-004, 5.30917059e-005,
          8.62291345e-005, 8.69785872e-005, 8.69973301e-005,
          8.69785872e-005 ]
      - [ -1.30624190e-001, -3.40989769e-001, -1.51809216e-001,
          -1.24731377e-001, -1.46500781e-001, -1.51809216e-001,
          -1.51809216e-001, -1.51809216e-001, -1.51760533e-001,
          -1.51809216e-001, -1.51809216e-001, -1.71433330e-001,
          -1.51859090e-001, -1.51809216e-001, -1.51809216e-001,
          5.83528638e-001, -1.52360260e-001, 8.33367050e-001,
          -1.51809216e-001, 4.81648147e-001, -1.38854727e-001,
          1.12866247e+000, -1.51809216e-001, -7.53620267e-002,
          6.87947199e-002, -9.03803781e-002, 7.70338476e-002,
          1.57842651e-001, 8.99940729e-002, 1.81003027e-002,
          -1.52245089e-001, -7.18920901e-002, 6.78135604e-002,
          -8.86512697e-002, 7.37048462e-002, 1.54790640e-001,
          8.35741013e-002, 1.87041089e-002, -1.46302551e-001,
          -7.20240474e-002, 5.83120659e-002, -9.04400051e-002,
          3.56618501e-002, 1.54428095e-001, 8.28321502e-002,
          1.86537243e-002, -1.36930585e-001, -7.05068782e-002,
          5.45290224e-002, -9.23430920e-002, 1.88001916e-002,
          1.49045765e-001, 7.27576241e-002, 1.74762290e-002,
          -1.39889866e-001, -8.47043544e-002, -1.08745495e-004,
          -9.65292677e-002, 3.02744191e-003, 1.48929119e-001,
          7.21952841e-002, 1.24181481e-002, -1.52090758e-001,
          -7.50806332e-002, 8.07029288e-003, -9.39222276e-002,
          1.01916643e-003, 1.52358875e-001, 7.71584883e-002,
          8.44419748e-003, -1.65818289e-001, -7.55023584e-002,
          6.89938804e-003, -9.12614167e-002, 2.21846346e-002,
          1.57639012e-001, 8.96574706e-002, 8.36549792e-003,
          -1.65964752e-001, -7.78896436e-002, 1.71437599e-002,
          -9.08975378e-002, 4.82703038e-002, 1.54891551e-001,
          8.48014280e-002, 1.32197095e-002, -1.62805289e-001,
          -9.11314972e-003, 2.03466460e-001, -1.41237965e-002,
          -3.32373008e-002, -4.96767461e-002, -4.76070531e-002,
          -4.97086681e-002 ]
      - [ 2.50617657e-002, -2.16317978e-002, 1.58909500e-001,
          -4.44745310e-002, -2.88626015e-001, -2.58870423e-001,
          -8.89082998e-002, 7.55221630e-003, -5.91093581e-003,
          1.03156716e-002, 1.03724711e-002, 9.91178956e-003,
          9.53534618e-003, 1.03645185e-002, 1.03724711e-002,
          4.59529907e-002, 3.65674719e-002, 1.03682512e-002,
          1.03724711e-002, 3.13153416e-001, 1.89800709e-002,
          1.02591086e-002, 1.03724711e-002, 9.27569810e-003,
          -2.81077158e-002, 1.15076667e-002, -1.99309513e-002,
          3.06197442e-002, 1.72516070e-002, 6.68973057e-003,
          -2.91325729e-002, 7.85480626e-003, -2.73987297e-002,
          1.07442830e-002, -2.06581671e-002, 2.94032916e-002,
          1.57152992e-002, 6.42946083e-003, -2.86525097e-002,
          6.24714838e-003, -3.08932941e-002, 1.01237679e-002,
          -2.10395120e-002, 2.93855425e-002, 1.62407756e-002,
          6.58464851e-003, -2.90373210e-002, 7.00119138e-003,
          -2.79109702e-002, 1.08310385e-002, -1.78153832e-002,
          3.04461028e-002, 1.77074932e-002, 7.42725842e-003,
          -2.91603934e-002, 1.00271767e-002, -2.01104395e-002,
          1.20090237e-002, -1.36645678e-002, 3.06897145e-002,
          1.77337620e-002, 7.63067557e-003, -2.98169982e-002,
          8.37866310e-003, -2.33830847e-002, 1.17047112e-002,
          -1.36513785e-002, 3.08335107e-002, 1.78773981e-002,
          7.64792040e-003, -3.01759355e-002, 7.77070131e-003,
          -2.62908433e-002, 1.10802250e-002, -1.67847015e-002,
          3.06386817e-002, 1.78916566e-002, 7.23608583e-003,
          -3.08495127e-002, 7.81961903e-003, -2.82026883e-002,
          1.11109959e-002, -1.98206250e-002, 3.13152671e-002,
          1.83828548e-002, 7.13479845e-003, -2.99116727e-002,
          -4.55619907e-003, 2.33142003e-002, -2.51359725e-003,
          -3.88624705e-003, -4.10611043e-003, -4.14653216e-003,
          -4.10550134e-003 ]
      - [ 1.25815347e-001, -9.13674608e-002, 3.10702920e-001,
          1.74772903e-001, -5.21042384e-002, -2.70709470e-002,
          -2.78498884e-002, -9.14888382e-002, -4.44946103e-002,
          -2.78829765e-002, -2.78800931e-002, -7.71397948e-002,
          -2.61436049e-002, -3.10772676e-002, -2.78800931e-002,
          5.47187217e-002, 8.41872916e-002, -3.23845334e-002,
          -2.78800931e-002, 7.09731085e-003, 2.91120075e-003,
          -1.19607672e-001, -2.79536340e-002, -1.31797856e-002,
          -1.37823716e-001, -9.90330335e-003, -1.05812550e-001,
          2.60409117e-001, 1.54610025e-002, 1.25892892e-001,
          -1.47970453e-001, -3.89215956e-003, -1.12330489e-001,
          -6.04348350e-003, -8.99494439e-002, 2.51651049e-001,
          3.37466132e-003, 1.23922057e-001, -1.46400660e-001,
          -5.40362857e-003, -1.15346752e-001, -4.32791607e-003,
          -8.18959400e-002, 2.48933032e-001, 6.69788627e-004,
          1.23570845e-001, -1.48839802e-001, -3.64913535e-003,
          -1.08318627e-001, -4.92762728e-003, -8.25438350e-002,
          2.51094013e-001, 7.37982895e-003, 1.27461791e-001,
          -1.50821880e-001, -1.22372732e-002, -1.35606080e-001,
          -8.12841766e-003, -9.34191197e-002, 2.61071175e-001,
          1.90732107e-002, 1.29349291e-001, -1.53946698e-001,
          -1.14926966e-002, -1.46376774e-001, -9.77700297e-003,
          -1.07472800e-001, 2.64334649e-001, 2.17526816e-002,
          1.29901633e-001, -1.55575633e-001, -1.23716835e-002,
          -1.51384935e-001, -1.05544869e-002, -1.16623215e-001,
          2.64841437e-001, 2.08476707e-002, 1.28549114e-001,
          -1.56420842e-001, -1.08557949e-002, -1.40204921e-001,
          -1.08393775e-002, -1.17607042e-001, 2.63563782e-001,
          1.99485756e-002, 1.28426537e-001, -1.51203722e-001,
          1.64026581e-002, -4.86264303e-002, 6.27563661e-003,
          6.28573820e-003, 6.59127394e-003, 6.48071850e-003,
          6.59041526e-003 ]
      - [ -6.24712631e-002, -8.71254146e-001, 1.93192139e-001,
          -1.04787266e+000, 1.82932302e-001, 1.86842814e-001,
          1.93192139e-001, -8.59235168e-001, 1.99919343e-001,
          1.93192139e-001, 1.93192139e-001, -1.00102615e+000,
          2.26596519e-001, 1.93192139e-001, 1.93192139e-001,
          3.82656187e-001, 1.80788767e+000, 1.93192139e-001,
          1.93192139e-001, -3.65477711e-001, -5.61667562e-001,
          4.66058142e-002, 1.90031201e-001, -1.79688245e-001,
          -4.52136278e-001, -1.13084532e-001, -5.27470708e-002,
          -1.13238553e-002, 7.49841392e-001, 1.91993028e-001,
          -3.55932079e-002, 5.11287339e-002, 1.89706028e-001,
          -8.42826888e-002, -2.06211954e-001, -2.62349993e-001,
          4.03887421e-001, 1.54173568e-001, 9.89697948e-002,
          -9.02084559e-002, -4.66495097e-001, -1.19913235e-001,
          -5.34970582e-001, -2.88003415e-001, 3.81889164e-001,
          1.53700292e-001, 1.73504367e-001, -1.42699733e-001,
          -6.34706557e-001, -1.64467961e-001, -6.89676464e-001,
          -3.23267728e-001, 4.10711497e-001, 2.02749833e-001,
          1.23121202e-001, -1.94536462e-001, -5.62279403e-001,
          -1.60073996e-001, -3.75454456e-001, -1.47758603e-001,
          5.65571845e-001, 2.33357266e-001, -2.36029588e-002,
          -1.66781187e-001, -1.78603262e-001, -1.18724540e-001,
          1.45741105e-001, -2.58307927e-003, 6.81424141e-001,
          2.54961371e-001, -1.29035532e-001, -8.16456079e-002,
          1.61293522e-001, -8.68602321e-002, 3.62772703e-001,
          -2.01286748e-002, 7.00153589e-001, 2.59780437e-001,
          -1.92218974e-001, -1.33057609e-001, -1.85705900e-001,
          -1.07295446e-001, 1.56086981e-001, 2.00809967e-002,
          7.79388905e-001, 2.45319948e-001, -1.33133575e-001,
          2.61342138e-001, -2.06746697e+000, -2.83497088e-002,
          3.92339647e-001, 4.80773777e-001, 4.81265455e-001,
          4.80095714e-001 ]
      - [ 5.91279685e-001, 2.24062819e-002, 1.02577370e-003,
          2.76916027e-002, -7.19249696e-002, -3.42627168e-002,
          -3.45735513e-002, -5.14131561e-002, -8.35166201e-002,
          -3.48452069e-002, -3.48452069e-002, -3.76109965e-002,
          -2.99660236e-001, -3.48452069e-002, -3.48452069e-002,
          1.05358727e-001, -2.41491105e-002, -3.48452069e-002,
          -3.48452069e-002, 2.05032974e-001, -3.70989963e-002,
          -3.46683376e-002, -3.48452069e-002, 4.22523841e-002,
          4.17436250e-002, 3.68731692e-002, 2.92920843e-002,
          -5.75682968e-002, 1.64784491e-001, -2.39807114e-001,
          -9.44586396e-002, 3.01620979e-002, 5.48074730e-002,
          3.27026658e-002, 2.42771655e-002, -6.13077655e-002,
          1.60475925e-001, -2.41081581e-001, -9.18215215e-002,
          2.92951968e-002, 5.63994311e-002, 3.42424102e-002,
          4.66079488e-002, -7.23458603e-002, 1.52941078e-001,
          -2.42589667e-001, -8.96949619e-002, 4.40687947e-002,
          1.16594113e-001, 4.55825813e-002, 9.66110379e-002,
          -8.57064426e-002, 1.41210333e-001, -2.40428492e-001,
          -8.59422833e-002, 6.45155460e-002, 1.72568142e-001,
          5.38919531e-002, 1.35794505e-001, -7.58049339e-002,
          1.48221269e-001, -2.38353744e-001, -8.62925574e-002,
          4.46452163e-002, 1.35809541e-001, 4.86602001e-002,
          1.36658862e-001, -7.15281144e-002, 1.51976719e-001,
          -2.37402499e-001, -9.03201401e-002, 3.40402946e-002,
          8.95910487e-002, 3.84288318e-002, 8.48537683e-002,
          -6.65120855e-002, 1.60759822e-001, -2.40232289e-001,
          -9.52005237e-002, 3.05981357e-002, 5.56567051e-002,
          3.52713093e-002, 4.01916616e-002, -6.39087558e-002,
          1.60825595e-001, -2.40150660e-001, -9.54243913e-002,
          -7.69920275e-002, 4.68072206e-001, -5.72703257e-002,
          -8.03586841e-002, -8.42551291e-002, -8.49510431e-002,
          -8.42449889e-002 ]
      - [ 2.52942830e-001, 6.00582659e-001, 6.77005053e-001,
          5.41053593e-001, -2.15368420e-001, -2.11902723e-001,
          -2.03402773e-001, -4.26069230e-001, -2.08012566e-001,
          -2.03525558e-001, -2.03481317e-001, -5.51972330e-001,
          -2.13145286e-001, -2.03702584e-001, -2.03481317e-001,
          2.20241404e+000, 5.99146485e-001, -2.03768954e-001,
          -2.03481317e-001, 2.39774480e-001, -2.73018749e-003,
          -1.64964306e+000, -2.09230632e-001, -4.57286797e-002,
          -1.28484026e-001, -4.03788872e-002, -5.88080920e-002,
          -3.55981588e-002, 7.52462000e-002, 1.24044918e-001,
          2.13339657e-001, -1.48736592e-002, -4.54938412e-002,
          -3.55374999e-002, -6.05441071e-002, -9.55953300e-002,
          1.18441209e-002, 1.19915165e-001, 2.66529769e-001,
          -2.75098607e-002, -9.87779200e-002, -3.57192345e-002,
          -9.17066410e-002, -1.80583328e-001, -5.53531572e-002,
          1.19316995e-001, 2.63872683e-001, -5.67444135e-003,
          6.15151506e-003, -6.12352639e-002, -1.64655864e-001,
          -1.63342372e-001, -1.58613138e-002, 1.36735290e-001,
          1.84701815e-001, -1.98083743e-001, -5.64615190e-001,
          -1.00099787e-001, -2.67633140e-001, 1.40617549e-001,
          2.23730415e-001, 1.55808970e-001, 9.09375772e-002,
          -9.04110596e-002, -2.41371721e-001, -8.43180716e-002,
          -2.05902308e-001, 1.72277451e-001, 2.56315440e-001,
          1.61687478e-001, 5.25110886e-002, -3.14233378e-002,
          -5.24153151e-002, -4.36210260e-002, -5.51209636e-002,
          3.74418609e-002, 1.46264359e-001, 1.49404556e-001,
          9.14909095e-002, -3.03323027e-002, -7.83228800e-002,
          -3.73319946e-002, -4.91221994e-002, -6.55040424e-003,
          1.07673720e-001, 1.32060826e-001, 1.58217609e-001,
          -1.17192324e-002, 1.21484675e-001, -4.80966829e-002,
          -1.50302770e-002, -1.56226810e-002, -1.53869465e-002,
          -1.56282950e-002 ]
      - [ 1.15730166e-001, 1.03615955e-001, 3.22974443e-001,
          1.59370720e-001, -5.00225089e-002, -5.19248508e-002,
          -5.19631281e-002, -5.03695793e-002, -5.18415049e-002,
          -5.19965775e-002, -5.19965775e-002, -5.05461134e-002,
          -5.02769835e-002, -5.19965775e-002, -5.19965775e-002,
          1.08207218e-001, 4.57652360e-002, -5.22903353e-002,
          -5.19965775e-002, 1.65053144e-001, -2.10967194e-002,
          -2.78405696e-001, -5.19965775e-002, -3.72971781e-002,
          -8.68330300e-002, -4.02827561e-002, -7.91629404e-002,
          1.98621199e-001, -2.56998185e-003, 1.19150706e-001,
          -6.94430694e-002, -2.99797188e-002, -8.27530697e-002,
          -3.90671231e-002, -8.94189179e-002, 1.95851877e-001,
          -4.16409597e-003, 1.18142121e-001, -6.70518726e-002,
          -3.46149094e-002, -1.04105040e-001, -3.97204943e-002,
          -9.71073806e-002, 1.98579401e-001, -2.89540947e-003,
          1.17956832e-001, -6.92540109e-002, -3.45434099e-002,
          -9.96321440e-002, -4.04095054e-002, -9.58148763e-002,
          2.02122241e-001, 5.02645457e-003, 1.21260904e-001,
          -6.98948801e-002, -3.76709923e-002, -9.29517820e-002,
          -4.08794619e-002, -8.36496651e-002, 2.01378971e-001,
          9.99784912e-004, 1.22213617e-001, -7.35361129e-002,
          -3.37893069e-002, -8.41228515e-002, -3.91515680e-002,
          -7.05569088e-002, 2.00694218e-001, -6.70425128e-004,
          1.22226238e-001, -7.63402805e-002, -3.48694883e-002,
          -8.58755484e-002, -3.87444198e-002, -6.57087564e-002,
          1.98619217e-001, -6.44412450e-003, 1.20466143e-001,
          -7.92105794e-002, -3.45879756e-002, -8.69597718e-002,
          -3.93478610e-002, -7.01813474e-002, 2.00698361e-001,
          2.16939152e-004, 1.20902613e-001, -7.38626868e-002,
          -9.49965231e-003, 6.08594827e-002, -7.77041074e-003,
          -1.05440365e-002, -1.09883053e-002, -1.10699823e-002,
          -1.09870741e-002 ]
      - [ 9.34865892e-001, -2.89075285e-001, -4.38022673e-001,
          3.49546946e-003, -1.01247160e-002, -2.00353861e-002,
          -2.03519519e-002, -2.05778424e-002, -2.04398073e-002,
          -2.06286162e-002, -2.06286162e-002, -2.05336716e-002,
          -2.04345956e-002, -2.06286162e-002, -2.06286162e-002,
          7.17650130e-002, -6.54932577e-004, -2.06286162e-002,
          -2.06286162e-002, 1.35488406e-001, -3.39329652e-002,
          -2.56086849e-002, -1.02050632e-001, -4.79217479e-003,
          -4.76192906e-002, 6.34089764e-003, -1.09330472e-002,
          5.06220236e-002, 3.28296423e-002, -3.03837117e-002,
          -6.30440712e-002, 6.68485463e-003, -3.62064727e-002,
          1.08117713e-002, -3.01020406e-003, 4.57066968e-002,
          2.78362483e-002, -3.11387777e-002, -6.14526160e-002,
          1.12310676e-002, -2.19197441e-002, 1.61563400e-002,
          1.41735300e-002, 3.80157419e-002, 2.23467238e-002,
          -3.18314061e-002, -6.01288006e-002, 1.74230244e-002,
          1.35397073e-002, 2.01120898e-002, 4.85306792e-002,
          3.46239656e-002, 1.82396099e-002, -3.12131979e-002,
          -6.01663105e-002, 1.24130854e-002, 4.54251878e-002,
          1.88776441e-002, 6.35243133e-002, 4.20548581e-002,
          2.46867016e-002, -3.02820802e-002, -6.09160066e-002,
          1.41956657e-002, 2.23817513e-003, 1.81165170e-002,
          4.23206240e-002, 4.26907167e-002, 2.55971663e-002,
          -3.01071350e-002, -6.24872595e-002, 8.34011193e-003,
          -3.75026911e-002, 1.40557913e-002, 2.81712925e-003,
          4.57775928e-002, 3.01207025e-002, -3.08435764e-002,
          -6.31390661e-002, 3.81742464e-003, -5.56240566e-002,
          8.84023774e-003, -1.98881906e-002, 4.78315502e-002,
          3.08781452e-002, -3.11826803e-002, -6.40314966e-002,
          -7.53926858e-002, 4.69034135e-001, -5.78786843e-002,
          -8.09467435e-002, -8.47133920e-002, -8.53994340e-002,
          -8.47031549e-002 ]
      - [ 3.52743380e-002, 4.83022593e-002, 1.34401247e-001,
          8.92976746e-002, 5.23717795e-003, 5.20900358e-003,
          5.12715755e-003, 5.36465971e-003, 4.87981737e-003,
          5.11561846e-003, 5.11561846e-003, 7.51678459e-003,
          5.32825710e-003, 5.11561846e-003, 5.11561846e-003,
          5.05015813e-002, 1.62847582e-002, 5.11561846e-003,
          5.11561846e-003, 6.85505792e-002, -1.03943571e-001,
          -2.99292028e-001, -1.08733408e-001, 5.05769765e-003,
          -1.28110191e-002, 6.02198578e-003, -8.19471758e-003,
          2.25983504e-002, 3.54643771e-003, 7.22701335e-003,
          -1.87264774e-002, 4.50702850e-003, -1.49634508e-002,
          5.59270708e-003, -1.00822793e-002, 2.18586344e-002,
          2.72095646e-003, 7.41442200e-003, -1.76960547e-002,
          4.10622451e-003, -1.69625487e-002, 5.33925649e-003,
          -1.18910279e-002, 2.12554280e-002, 2.27518729e-003,
          7.66048813e-003, -1.68643277e-002, 4.23482619e-003,
          -1.73782557e-002, 5.36721852e-003, -1.24906823e-002,
          2.13981345e-002, 2.54877564e-003, 7.91668706e-003,
          -1.65960509e-002, 4.48585628e-003, -1.57760456e-002,
          5.55247394e-003, -1.16871754e-002, 2.21630689e-002,
          3.43400589e-003, 7.82416202e-003, -1.72368418e-002,
          4.79533151e-003, -1.48879346e-002, 5.84892463e-003,
          -9.94143821e-003, 2.26476528e-002, 3.87076871e-003,
          7.59142824e-003, -1.82619840e-002, 5.01585333e-003,
          -1.40547743e-002, 6.05239440e-003, -8.90212227e-003,
          2.28347536e-002, 4.01908392e-003, 7.15317531e-003,
          -1.93046387e-002, 5.01539465e-003, -1.42091783e-002,
          6.11729221e-003, -8.63399263e-003, 2.28461698e-002,
          3.90174915e-003, 7.08277710e-003, -1.93467718e-002,
          -3.00472789e-003, 1.10604111e-002, -1.78590615e-003,
          -1.66908151e-003, -1.53330702e-003, -1.53375673e-003,
          -1.53362646e-003 ]
      - [ 6.34051025e-001, -3.19588572e-001, -1.82334110e-001,
          1.87354293e-002, -7.07491785e-002, -6.37584925e-002,
          -6.41335025e-002, -7.30120838e-002, -6.54501840e-002,
          -6.55942857e-002, -6.52534813e-002, -6.54757917e-002,
          -6.50290325e-002, -6.53067976e-002, -6.52534813e-002,
          2.47991115e-001, -6.98678615e-003, -6.52534813e-002,
          -6.52534813e-002, 5.70325375e-001, 2.74897888e-002,
          -6.49072826e-002, -6.52534813e-002, 8.77810549e-003,
          -1.32134438e-001, 6.82614325e-003, -1.49307355e-001,
          1.22868076e-001, 1.03121750e-001, -5.19006774e-002,
          -1.46161497e-001, 3.44042038e-003, -1.65926099e-001,
          7.83549342e-003, -1.46088809e-001, 9.77323204e-002,
          7.99379200e-002, -5.91551661e-002, -1.45228788e-001,
          3.78694804e-003, -1.43505454e-001, 1.74866095e-002,
          -7.15228915e-002, 7.32347071e-002, 6.17234632e-002,
          -6.45399913e-002, -1.53027982e-001, 3.53815407e-002,
          3.12677920e-002, 4.08789925e-002, 8.86997953e-002,
          8.44684020e-002, 6.70107678e-002, -6.05264343e-002,
          -1.58613831e-001, 6.16816133e-002, 2.35454500e-001,
          5.30060679e-002, 1.94513321e-001, 1.11948319e-001,
          9.23552141e-002, -5.20363413e-002, -1.58460557e-001,
          4.19630408e-002, 1.05965339e-001, 4.40083072e-002,
          1.45311505e-001, 1.05123043e-001, 8.75422806e-002,
          -4.56726812e-002, -1.54742315e-001, 1.46935889e-002,
          -3.32680866e-002, 2.13783011e-002, -4.00187867e-003,
          1.08783998e-001, 9.53647420e-002, -4.68130596e-002,
          -1.50932893e-001, 1.01051917e-002, -9.27737802e-002,
          1.10734710e-002, -1.14219338e-001, 1.21364638e-001,
          1.02387771e-001, -4.92387004e-002, -1.48705751e-001,
          -3.06736797e-001, 1.83367252e+000, -2.35653654e-001,
          -3.12391669e-001, -3.25370967e-001, -3.28189045e-001,
          -3.25330138e-001 ]
      - [ 9.67702150e-001, -3.75746518e-001, -4.65690732e-001,
          -7.93047808e-003, -6.43438613e-003, -2.03702971e-002,
          -2.08114032e-002, -2.11210921e-002, -2.08862796e-002,
          -2.11969092e-002, -2.11969092e-002, -2.10383311e-002,
          -2.08255649e-002, -2.11969092e-002, -2.11969092e-002,
          1.04097925e-001, 9.15031228e-003, -2.11969092e-002,
          -2.11969092e-002, 1.53814197e-001, -7.13408599e-003,
          -8.92556980e-002, -3.03384587e-002, 9.26558301e-002,
          -1.21481530e-001, 1.16856135e-001, -4.75889444e-002,
          4.52545658e-002, 6.11811988e-002, -5.23683578e-002,
          -7.83282071e-002, 8.04428682e-002, -1.47974283e-001,
          1.09705500e-001, -6.84157237e-002, 4.08041216e-002,
          5.73195890e-002, -5.32039143e-002, -7.59723932e-002,
          6.88155591e-002, -1.85407072e-001, 1.08136177e-001,
          -6.74163401e-002, 3.01412418e-002, 4.98841442e-002,
          -5.31090163e-002, -7.26522654e-002, 8.55225548e-002,
          -1.04678608e-001, 1.16176955e-001, -1.91153660e-002,
          2.12932173e-002, 3.89337316e-002, -5.38285114e-002,
          -7.19265938e-002, 1.02371752e-001, -3.28151509e-002,
          1.24476582e-001, 1.70398671e-002, 2.89264973e-002,
          4.44618203e-002, -5.41869588e-002, -7.31235966e-002,
          8.71893018e-002, -9.70282853e-002, 1.19795799e-001,
          -2.82436772e-003, 3.08736283e-002, 4.64818403e-002,
          -5.40763177e-002, -7.64339268e-002, 8.17245692e-002,
          -1.38862580e-001, 1.14736855e-001, -4.17502411e-002,
          3.48395109e-002, 5.43887317e-002, -5.38222641e-002,
          -7.77486861e-002, 8.32307488e-002, -1.41774684e-001,
          1.14383958e-001, -5.53742051e-002, 4.09210175e-002,
          5.70802018e-002, -5.36999851e-002, -7.90579915e-002,
          -9.97071043e-002, 5.85079193e-001, -6.91282004e-002,
          -1.00151867e-001, -1.05018474e-001, -1.06069386e-001,
          -1.05004117e-001 ]
      - [ 8.24612021e-001, -4.81702477e-001, -1.83684647e-001,
          -3.47338580e-002, -5.68411909e-002, -6.31813034e-002,
          -6.34786412e-002, -6.34439588e-002, -6.32519796e-002,
          -6.37385026e-002, -6.37385026e-002, -6.31167069e-002,
          -6.24829344e-002, -6.37385026e-002, -6.37385026e-002,
          4.18511897e-001, 5.36425114e-002, -6.37385026e-002,
          -6.37385026e-002, 5.78656793e-001, -6.07430339e-002,
          -2.12950349e-001, -8.33810866e-002, 7.59774819e-002,
          -1.04637660e-001, 8.54323134e-002, -4.95374165e-002,
          1.46035284e-001, 4.61245477e-002, -1.48963705e-001,
          -1.19057812e-001, 8.19248110e-002, -6.66013882e-002,
          9.01399553e-002, -2.02138983e-002, 1.33567780e-001,
          3.38813588e-002, -1.51748851e-001, -1.09367669e-001,
          8.27953741e-002, -5.58831878e-002, 9.69242826e-002,
          8.24409444e-003, 1.12233743e-001, 1.73185095e-002,
          -1.55756354e-001, -9.29445028e-002, 1.08861215e-001,
          3.28247584e-002, 1.06852159e-001, 4.33973260e-002,
          6.91392273e-002, -1.80980917e-002, -1.60410792e-001,
          -8.85598436e-002, 1.05189338e-001, 1.83287226e-002,
          1.05981201e-001, 3.82295400e-002, 9.10349712e-002,
          -1.67406281e-003, -1.59694120e-001, -9.30844545e-002,
          8.94141644e-002, -3.74569111e-002, 9.59323570e-002,
          -2.77237245e-003, 1.20478272e-001, 2.12865323e-002,
          -1.55739963e-001, -1.05418444e-001, 7.21843466e-002,
          -1.02070101e-001, 8.65698755e-002, -4.51273769e-002,
          1.45307347e-001, 4.63668630e-002, -1.50509000e-001,
          -1.12520903e-001, 7.37186223e-002, -1.10154912e-001,
          8.38269070e-002, -6.29330575e-002, 1.43245324e-001,
          4.32580486e-002, -1.50098339e-001, -1.20991513e-001,
          -7.56904706e-002, 5.23346663e-001, -6.65196031e-002,
          -9.15754586e-002, -9.62681398e-002, -9.70349684e-002,
          -9.62580591e-002 ]
      - [ 5.90217859e-002, 1.32486853e-003, 2.20398471e-001,
          1.62427932e-001, -3.53288725e-002, -3.93298902e-002,
          -3.64721417e-002, -3.39235812e-002, -3.61324176e-002,
          -3.64950597e-002, -3.64950597e-002, -4.43091709e-003,
          -3.36378291e-002, -3.64950597e-002, -3.64950597e-002,
          1.21797532e-001, 8.05728370e-004, -3.64950597e-002,
          -3.64950597e-002, -5.24978107e-003, -3.09177730e-002,
          -5.48877157e-002, -3.64950597e-002, -3.53839584e-002,
          -6.95699975e-002, -3.52763273e-002, -4.19255383e-002,
          1.95141375e-001, -8.25832598e-003, 7.29803294e-002,
          -7.28561059e-002, -3.05851027e-002, -6.87671378e-002,
          -3.36229131e-002, -4.40001599e-002, 1.92827404e-001,
          -1.08082127e-002, 7.28791058e-002, -6.98895752e-002,
          -2.89169736e-002, -6.68842047e-002, -3.18515003e-002,
          -4.49679121e-002, 1.89414322e-001, -1.83797348e-002,
          7.27094561e-002, -6.48343042e-002, -2.34016515e-002,
          -4.97065485e-002, -3.13389413e-002, -4.66116518e-002,
          1.81450635e-001, -2.45895423e-002, 7.35449865e-002,
          -6.25232384e-002, -3.19107845e-002, -7.23119155e-002,
          -3.37259807e-002, -5.27974069e-002, 1.86420411e-001,
          -2.00269371e-002, 7.37515613e-002, -6.43477812e-002,
          -3.17110941e-002, -8.26090425e-002, -3.43668163e-002,
          -5.66436686e-002, 1.92805365e-001, -1.07893674e-002,
          7.36289024e-002, -6.89712018e-002, -3.19345891e-002,
          -8.00571889e-002, -3.41014564e-002, -5.18369526e-002,
          1.96326271e-001, -7.96830095e-003, 7.29692727e-002,
          -7.24905878e-002, -3.13375853e-002, -6.97563365e-002,
          -3.42799053e-002, -4.53979634e-002, 1.94558576e-001,
          -6.70084544e-003, 7.31530488e-002, -7.35378638e-002,
          -5.86829940e-003, 1.93706881e-002, -2.54451041e-003,
          -2.68258993e-003, -2.72898003e-003, -2.81838351e-003,
          -2.72791577e-003 ]
      - [ -1.43302977e-003, -7.76092038e-002, -2.67940555e-002,
          -4.40418832e-002, 5.00083148e-001, 3.76025707e-001,
          3.51934209e-002, -4.10145856e-002, -2.95404363e-002,
          -2.90415920e-002, -2.91395243e-002, -7.14349672e-002,
          -1.22943603e-001, -2.91318558e-002, -2.91395243e-002,
          -2.15894803e-002, -2.89613344e-002, -2.91395653e-002,
          -2.91395243e-002, -1.77747875e-001, -2.90018078e-002,
          -3.53189297e-002, -2.91395243e-002, -2.28644088e-002,
          -3.89640406e-002, -2.49729753e-002, -3.67403813e-002,
          7.53166005e-002, 1.53987156e-003, 5.08266948e-002,
          -2.95282006e-002, -1.66734643e-002, -2.47132815e-002,
          -2.16998365e-002, -2.14443877e-002, 7.35824630e-002,
          -8.17970489e-004, 5.03416918e-002, -3.02433744e-002,
          -1.50316972e-002, -1.66248977e-002, -1.95783619e-002,
          -9.84410010e-003, 7.27734268e-002, -2.15282082e-003,
          4.95714359e-002, -3.13008875e-002, -1.61110535e-002,
          -1.69882886e-002, -2.03176588e-002, -8.79617594e-003,
          7.17851222e-002, -3.32164927e-003, 4.98070717e-002,
          -3.09069045e-002, -2.14926582e-002, -2.65366007e-002,
          -2.24419683e-002, -1.51174711e-002, 7.33925328e-002,
          -1.32259179e-003, 5.04520051e-002, -3.02988775e-002,
          -1.83380377e-002, -3.09835430e-002, -2.24144347e-002,
          -2.37612575e-002, 7.47893974e-002, 5.86898415e-004,
          5.08606844e-002, -2.98492257e-002, -1.84840392e-002,
          -3.69986892e-002, -2.30782852e-002, -3.54224406e-002,
          7.66770020e-002, 2.82062637e-003, 5.08389995e-002,
          -2.99601573e-002, -1.99436825e-002, -4.29973714e-002,
          -2.45602150e-002, -4.19847332e-002, 7.56824687e-002,
          2.01863353e-003, 5.12052625e-002, -2.92457864e-002,
          -7.96689346e-005, 9.19328351e-003, -2.05001817e-003,
          -1.78564922e-003, -1.76050828e-003, -1.75693387e-003,
          -1.76051480e-003 ]
      - [ -7.62723247e-003, -1.23460554e-001, -3.39270048e-002,
          -4.95357402e-002, 4.91438687e-001, 4.58275288e-001,
          2.83306558e-002, -4.26461324e-002, 5.79393760e-004,
          -3.48725952e-002, -3.50387990e-002, -3.68043743e-002,
          -3.34280543e-002, -3.50360684e-002, -3.50387990e-002,
          -6.47693649e-002, -3.58682759e-002, -3.50387990e-002,
          -3.50387990e-002, -2.35485375e-001, -3.49303447e-002,
          -3.50390039e-002, -3.50387990e-002, -3.79216485e-002,
          5.83072100e-003, -4.03011031e-002, 2.35092849e-003,
          1.42335864e-002, -8.05547554e-003, 2.49661133e-002,
          5.90997562e-003, -3.15736085e-002, 2.01846808e-002,
          -3.78599204e-002, 1.49217099e-002, 1.41964247e-002,
          -8.32550321e-003, 2.49738563e-002, 5.01335692e-003,
          -3.09501030e-002, 2.39575021e-002, -3.65973972e-002,
          2.38030124e-002, 1.58329736e-002, -6.66225841e-003,
          2.54890248e-002, 4.50452510e-003, -3.31577100e-002,
          2.32453253e-002, -3.79084535e-002, 2.63524726e-002,
          1.79745946e-002, -5.56709804e-003, 2.57647727e-002,
          3.49023798e-003, -3.84945385e-002, 2.21494623e-002,
          -3.95468734e-002, 2.49297675e-002, 1.79543924e-002,
          -5.50570944e-003, 2.61060670e-002, 3.66576668e-003,
          -3.25462446e-002, 1.82867702e-002, -3.79602611e-002,
          1.86843760e-002, 1.60752255e-002, -6.67358143e-003,
          2.59056035e-002, 4.53424593e-003, -3.15449946e-002,
          1.54857626e-002, -3.72899100e-002, 1.00486837e-002,
          1.62420236e-002, -5.73162688e-003, 2.58117430e-002,
          6.28057914e-003, -3.30869481e-002, 5.26772486e-003,
          -3.88045460e-002, 1.85686676e-003, 1.50443036e-002,
          -7.03814020e-003, 2.54375506e-002, 6.34096889e-003,
          1.50702719e-003, -3.32977660e-002, 5.83633780e-003,
          6.41262857e-003, 6.51251664e-003, 6.51662750e-003,
          6.51264424e-003 ]
      - [ 4.47231047e-002, -6.94814920e-002, -8.56463015e-002,
          7.62704834e-002, 1.87243640e-001, 3.11364532e-001,
          2.11221367e-001, -4.53723930e-002, -4.18663509e-002,
          -3.62793244e-002, -3.63371298e-002, -3.76396291e-002,
          -8.85292292e-002, -3.63210961e-002, -3.63371298e-002,
          -3.55947725e-002, -4.20420840e-002, -3.63227278e-002,
          -3.63371298e-002, -5.49752973e-002, -3.96694876e-002,
          -3.57344300e-002, -3.63371298e-002, -1.04295630e-002,
          4.62451428e-002, -1.64910145e-002, 2.84486450e-002,
          -4.19852287e-002, 1.69393308e-002, -4.53044400e-002,
          1.23904338e-002, -8.09681229e-003, 5.41991107e-002,
          -1.53181991e-002, 3.09799500e-002, -4.18256298e-002,
          1.69613343e-002, -4.54250053e-002, 1.22639649e-002,
          -6.71325903e-003, 5.70390001e-002, -1.46212419e-002,
          3.24896388e-002, -4.15210538e-002, 1.73535775e-002,
          -4.54656966e-002, 1.21490210e-002, -6.71853917e-003,
          5.65645769e-002, -1.45588052e-002, 3.23059559e-002,
          -4.18770723e-002, 1.70231182e-002, -4.50347699e-002,
          1.24793937e-002, -8.31230450e-003, 5.14584668e-002,
          -1.53778298e-002, 3.03087514e-002, -4.08499353e-002,
          1.77181736e-002, -4.46884558e-002, 1.25823878e-002,
          -9.14389733e-003, 5.05772233e-002, -1.58330295e-002,
          3.02302241e-002, -4.12565880e-002, 1.74842440e-002,
          -4.45550345e-002, 1.26873190e-002, -1.01734055e-002,
          4.81937565e-002, -1.64110065e-002, 2.88362503e-002,
          -4.19022553e-002, 1.73723884e-002, -4.49435189e-002,
          1.24713816e-002, -1.05578052e-002, 4.74812686e-002,
          -1.66920032e-002, 2.78722998e-002, -4.29004356e-002,
          1.64480601e-002, -4.51032855e-002, 1.25327148e-002,
          -2.19685226e-005, -1.01817186e-005, -1.56309143e-005,
          9.90269928e-006, 1.25672123e-005, 1.27373314e-005,
          1.25672123e-005 ]
      - [ -8.65656696e-003, -7.45198578e-002, -3.60307395e-002,
          -8.98602828e-002, 5.72468758e-001, 4.55657125e-001,
          3.61820832e-002, -1.32070288e-001, -5.34765609e-003,
          -3.74434814e-002, -3.75915691e-002, -7.16277361e-002,
          -5.01751192e-002, -3.75852510e-002, -3.75915691e-002,
          -3.44558470e-002, -4.17071916e-002, -3.75915691e-002,
          -3.75915691e-002, -1.27271563e-001, -4.18099388e-002,
          -8.21158588e-002, -4.32643741e-002, -2.35365108e-002,
          1.32721048e-002, -2.52096914e-002, 1.02478880e-002,
          1.22284358e-002, -2.89698150e-002, 3.49116847e-002,
          2.37236675e-002, -1.83669031e-002, 6.09677751e-003,
          -2.43953802e-002, -1.46366807e-003, 1.30131226e-002,
          -2.77540702e-002, 3.59587334e-002, 2.63235513e-002,
          -1.80392005e-002, 1.65412726e-003, -2.50275806e-002,
          -1.72910374e-002, 1.70056727e-002, -2.36272328e-002,
          3.82331535e-002, 3.07088625e-002, -2.22722627e-002,
          -1.88529752e-002, -2.86055934e-002, -3.48316245e-002,
          1.96381807e-002, -2.11429950e-002, 3.91133428e-002,
          2.98980437e-002, -3.09245549e-002, -3.52289379e-002,
          -3.08479518e-002, -3.74806300e-002, 2.14738082e-002,
          -1.97695829e-002, 3.94016430e-002, 2.85642613e-002,
          -2.10510213e-002, -6.48162374e-003, -2.71670353e-002,
          -2.05820948e-002, 1.91330165e-002, -2.21700445e-002,
          3.85943763e-002, 2.71024890e-002, -1.68202538e-002,
          1.87483132e-002, -2.29828097e-002, 6.39955513e-003,
          1.62913017e-002, -2.51934938e-002, 3.74091454e-002,
          2.63282564e-002, -1.71318203e-002, 2.31417827e-002,
          -2.29762141e-002, 1.75460987e-002, 1.31333582e-002,
          -2.83338670e-002, 3.55717652e-002, 2.36619543e-002,
          8.99133552e-003, -3.80949154e-002, 3.95748625e-003,
          5.84791508e-003, 6.48388453e-003, 6.33018557e-003,
          6.48410525e-003 ]
      - [ -1.48005281e-002, -6.70685917e-002, -4.30702418e-002,
          -8.96947086e-002, 5.22690296e-001, 4.31993842e-001,
          2.22119614e-002, -3.75108309e-002, -7.08951382e-003,
          -4.47485186e-002, -4.48908694e-002, -4.30250652e-002,
          -4.25287746e-002, -4.48856503e-002, -4.48908694e-002,
          -3.49264331e-002, -4.46215905e-002, -4.49118279e-002,
          -4.48908694e-002, -1.22672193e-001, -4.46654931e-002,
          -7.11126924e-002, -4.48908694e-002, -2.97133736e-002,
          -6.34451071e-003, -3.25572826e-002, -6.86140824e-003,
          7.03964308e-002, -3.26270773e-003, 4.50920239e-002,
          -2.88436059e-002, -2.52114516e-002, -9.09485109e-003,
          -3.12874839e-002, -9.98584554e-003, 6.97614551e-002,
          -3.48027889e-003, 4.47401367e-002, -2.89898887e-002,
          -2.54750196e-002, -1.64503381e-002, -3.08707803e-002,
          -1.44511638e-002, 7.15837032e-002, -1.54280162e-003,
          4.43259515e-002, -2.94378027e-002, -2.64277328e-002,
          -1.86607130e-002, -3.21775191e-002, -1.86117366e-002,
          7.17749968e-002, -7.45298923e-004, 4.48249653e-002,
          -2.88729258e-002, -3.16985548e-002, -2.34017074e-002,
          -3.37985195e-002, -1.93468090e-002, 7.21755624e-002,
          -2.03909221e-004, 4.52542901e-002, -2.87254024e-002,
          -2.70024408e-002, -1.84606835e-002, -3.22749913e-002,
          -1.57503821e-002, 7.19366968e-002, -7.59130809e-004,
          4.54023518e-002, -2.89590377e-002, -2.59592887e-002,
          -1.26149161e-002, -3.08791585e-002, -8.77001416e-003,
          7.24246129e-002, -9.09836672e-004, 4.51933071e-002,
          -2.95468103e-002, -2.59380732e-002, -8.79518408e-003,
          -3.13133597e-002, -5.68541605e-003, 7.10339919e-002,
          -2.41959980e-003, 4.55223024e-002, -2.88729612e-002,
          -2.02891693e-004, 9.51359887e-003, -1.86214305e-003,
          -1.86214305e-003, -1.86214305e-003, -1.86214305e-003,
          -1.86214305e-003 ]
      - [ 1.08079076e-001, -1.09722383e-001, -2.13384956e-001,
          4.44941074e-002, 1.41004309e-001, 2.76047140e-001,
          1.99843705e-001, -2.78075114e-002, -2.73967236e-002,
          -2.81412322e-002, -2.81956289e-002, -2.79819537e-002,
          -2.80326307e-002, -2.81817373e-002, -2.81956289e-002,
          -2.75594648e-002, -2.80802138e-002, -2.81820353e-002,
          -2.81956289e-002, -2.61266660e-002, -2.80089211e-002,
          -2.76619270e-002, -2.86130849e-002, -1.34530319e-002,
          2.24161167e-002, -1.63426828e-002, 1.34505648e-002,
          -1.02297645e-002, -8.05917848e-003, -6.53735735e-003,
          7.12313317e-003, -9.02680680e-003, 2.85571869e-002,
          -1.44918347e-002, 1.66929010e-002, -1.03276484e-002,
          -8.17005523e-003, -6.49862085e-003, 7.17791868e-003,
          -7.01656844e-003, 3.31690423e-002, -1.32489260e-002,
          1.88491046e-002, -9.93145071e-003, -7.71580404e-003,
          -6.21120073e-003, 7.68608460e-003, -7.30648683e-003,
          3.34422104e-002, -1.37336869e-002, 1.81534532e-002,
          -9.88751557e-003, -7.77396047e-003, -6.11818954e-003,
          7.49029778e-003, -1.11636426e-002, 2.78262291e-002,
          -1.52654061e-002, 1.48593429e-002, -9.04015172e-003,
          -7.15925358e-003, -5.95390797e-003, 7.48669496e-003,
          -9.84213315e-003, 2.49805208e-002, -1.52561711e-002,
          1.23596154e-002, -9.38030612e-003, -7.39205908e-003,
          -5.91411022e-003, 7.61148194e-003, -1.05127823e-002,
          2.22309735e-002, -1.53347915e-002, 1.10434182e-002,
          -9.85072460e-003, -7.59152556e-003, -6.02865079e-003,
          7.82562047e-003, -1.13032553e-002, 2.17468012e-002,
          -1.60196479e-002, 1.12238210e-002, -1.07738189e-002,
          -8.40891618e-003, -6.40777778e-003, 7.27723166e-003,
          -6.82334576e-006, -1.04603160e-003, 1.23468662e-005,
          2.51787569e-004, 2.62806367e-004, 2.63114111e-004,
          2.62806367e-004 ]
      - [ 2.71617547e-002, 5.11054583e-002, 2.92651579e-002,
          1.18680596e-001, 9.97943580e-002, 1.09647602e-001,
          6.75631687e-002, -3.56564042e-003, -9.03939537e-004,
          -4.44933260e-003, -4.46522469e-003, -3.98566201e-003,
          -4.01296932e-003, -4.45984723e-003, -4.46522469e-003,
          -2.53595109e-003, -4.40352876e-003, -4.46129590e-003,
          -4.46522469e-003, -6.24916703e-002, -9.23063606e-002,
          -2.25021318e-001, -7.72249028e-002, -3.63193080e-003,
          -5.59402222e-004, -4.16309712e-003, -2.36102170e-003,
          1.14157191e-003, -8.71754996e-003, 7.32110208e-003,
          6.65723160e-003, -2.38285377e-003, 1.31878327e-003,
          -3.69862164e-003, -1.39407604e-003, 1.26008643e-003,
          -8.47644545e-003, 7.45235430e-003, 6.88084913e-003,
          -1.55548065e-003, 3.01576685e-003, -3.26174800e-003,
          -8.87279690e-004, 1.13998668e-003, -8.52618273e-003,
          7.51580810e-003, 7.15273619e-003, -1.56007963e-003,
          2.49839365e-003, -3.26063507e-003, -1.13131956e-003,
          1.13869051e-003, -8.30877107e-003, 7.39355385e-003,
          7.04038655e-003, -2.69152876e-003, 1.19325379e-003,
          -3.59144271e-003, -1.71155855e-003, 1.23004883e-003,
          -8.34529195e-003, 7.23611610e-003, 6.84934529e-003,
          -1.92216749e-003, 1.50320784e-003, -3.41231516e-003,
          -1.68001768e-003, 1.26563502e-003, -8.42172373e-003,
          7.11505534e-003, 6.64907042e-003, -2.19162880e-003,
          2.64176313e-004, -3.47575056e-003, -2.28210632e-003,
          1.11676205e-003, -8.77405424e-003, 7.03270221e-003,
          6.53164601e-003, -2.76098982e-003, -1.07896584e-003,
          -3.84522136e-003, -2.74712290e-003, 1.05809176e-003,
          -8.75223987e-003, 7.09414808e-003, 6.49404619e-003,
          7.92367209e-005, -3.47699691e-003, 5.39641362e-004,
          7.01320241e-004, 7.19452684e-004, 7.17889809e-004,
          7.19453790e-004 ]
      - [ -6.12549623e-003, -1.08155750e-001, -1.11373380e-001,
          1.05678737e-001, 2.15569556e-001, 3.80797207e-001,
          2.65436560e-001, -4.76767309e-002, -4.37409729e-002,
          -4.69622873e-002, -4.69615534e-002, -4.65133451e-002,
          -4.64664288e-002, -4.69535589e-002, -4.69615534e-002,
          -4.51048240e-002, -4.67891097e-002, -4.69431579e-002,
          -4.69615534e-002, -4.41361070e-002, -4.65045832e-002,
          -4.61901240e-002, -4.69615534e-002, -1.66949797e-002,
          1.27242003e-002, -1.98656768e-002, 2.92305439e-003,
          -5.02104172e-003, -1.11800414e-002, 3.02402466e-003,
          7.24456552e-003, -9.12238285e-003, 3.05774696e-002,
          -1.60359237e-002, 1.57236308e-002, -6.11724425e-003,
          -1.20852590e-002, 2.41891737e-003, 6.61225012e-003,
          -5.92627842e-003, 4.09226827e-002, -1.38108516e-002,
          2.28649192e-002, -5.74887171e-003, -1.17383609e-002,
          2.06474634e-003, 5.97692095e-003, -6.82788482e-003,
          3.91463898e-002, -1.47630600e-002, 2.02478468e-002,
          -4.70668776e-003, -1.09875789e-002, 2.14951369e-003,
          5.04536415e-003, -1.29602551e-002, 2.76502389e-002,
          -1.73427574e-002, 1.38749871e-002, -2.45757541e-003,
          -9.21555329e-003, 3.03461822e-003, 5.35375066e-003,
          -1.21666752e-002, 2.23897658e-002, -1.84130054e-002,
          7.57290144e-003, -2.33100448e-003, -9.33061354e-003,
          4.03638603e-003, 6.52512023e-003, -1.41902640e-002,
          1.31183714e-002, -1.95069592e-002, 9.51655675e-004,
          -2.85037956e-003, -9.90241021e-003, 4.46520094e-003,
          7.73724588e-003, -1.59552246e-002, 7.20662391e-003,
          -2.04168987e-002, -1.97048904e-003, -4.46239347e-003,
          -1.10402498e-002, 3.88581608e-003, 7.67556904e-003,
          -4.36177543e-005, 1.37431605e-003, -3.25705420e-004,
          -2.54900049e-004, -2.50003592e-004, -2.50087352e-004,
          -2.50002777e-004 ]
      - [ 6.81873485e-002, -1.10146895e-001, -2.10008487e-001,
          5.50475605e-002, 1.60635486e-001, 3.10328782e-001,
          2.24153668e-001, -3.07724401e-002, -3.01888846e-002,
          -3.11820265e-002, -3.12428903e-002, -3.09846103e-002,
          -3.10398936e-002, -3.12272869e-002, -3.12428903e-002,
          -3.04508265e-002, -3.11122034e-002, -3.12276836e-002,
          -3.12428903e-002, -2.88803447e-002, -3.08590084e-002,
          -3.51030789e-002, -3.14405262e-002, -9.01103951e-003,
          2.73774397e-002, -1.36715928e-002, 1.15368962e-002,
          -1.11128716e-002, -7.15028355e-003, -4.86189453e-003,
          6.70437282e-003, -7.24331802e-003, 2.67792922e-002,
          -1.36867389e-002, 9.09882225e-003, -9.52124503e-003,
          -5.56120230e-003, -3.48844868e-003, 7.95532111e-003,
          -1.01844687e-002, 1.31991580e-002, -1.35886390e-002,
          7.20711472e-003, -8.39372352e-003, -4.50925622e-003,
          -2.81484588e-003, 8.74028914e-003, -5.42663038e-003,
          3.05742174e-002, -1.31130787e-002, 8.79344810e-003,
          -9.76093952e-003, -5.95676526e-003, -3.53950122e-003,
          8.12762789e-003, -7.53333373e-003, 2.83462796e-002,
          -1.32018086e-002, 9.09155514e-003, -1.00243418e-002,
          -6.54996559e-003, -4.96689323e-003, 6.70829415e-003,
          -6.76399609e-003, 2.73099765e-002, -1.29202232e-002,
          9.39335581e-003, -1.04972124e-002, -6.99262554e-003,
          -5.94810769e-003, 5.58787212e-003, -6.90423511e-003,
          2.68611442e-002, -1.27721401e-002, 1.01607461e-002,
          -1.12230517e-002, -7.40348874e-003, -6.26886729e-003,
          5.37155382e-003, -7.48094684e-003, 2.74017658e-002,
          -1.31229274e-002, 1.13912327e-002, -1.20189516e-002,
          -7.98318628e-003, -6.06021658e-003, 5.51515119e-003,
          -3.02740409e-006, -1.97779527e-003, 2.67809170e-004,
          4.22379235e-004, 4.30113869e-004, 4.30417072e-004,
          4.30113869e-004 ]
      - [ 9.32747051e-002, -1.22368194e-001, -1.31970525e-001,
          8.19989517e-002, 1.79780602e-001, 3.32172781e-001,
          2.34014317e-001, -4.08240333e-002, -3.94317545e-002,
          -4.14895117e-002, -4.15548123e-002, -4.11577746e-002,
          -4.12203558e-002, -4.15376909e-002, -4.15548123e-002,
          -4.02038619e-002, -4.14330885e-002, -4.15385067e-002,
          -4.15548123e-002, -3.95031832e-002, -4.79875542e-002,
          -4.30191979e-002, -4.28916812e-002, -1.12531930e-002,
          5.25267562e-003, -1.43817281e-002, -4.06342931e-003,
          -1.77199375e-002, -2.24773735e-002, 5.25322696e-003,
          3.38988714e-002, -4.96874563e-003, 2.16595121e-002,
          -1.17456736e-002, 4.00582654e-003, -1.81870013e-002,
          -2.28979383e-002, 5.08080935e-003, 3.39086615e-002,
          -2.63475929e-003, 3.06620076e-002, -9.74563416e-003,
          1.21184587e-002, -1.88841168e-002, -2.34618671e-002,
          4.79340414e-003, 3.41182873e-002, -2.66511599e-003,
          3.05613931e-002, -9.95002966e-003, 1.32344961e-002,
          -1.93902049e-002, -2.37798896e-002, 3.70445312e-003,
          3.24003585e-002, -7.28872837e-003, 2.19334830e-002,
          -1.19257020e-002, 7.77699612e-003, -1.85763519e-002,
          -2.32582930e-002, 3.54679860e-003, 3.17481123e-002,
          -6.40282175e-003, 1.73736066e-002, -1.23760691e-002,
          2.85383547e-003, -1.85544770e-002, -2.33250484e-002,
          4.16670553e-003, 3.25267389e-002, -8.02846253e-003,
          1.15668420e-002, -1.28936181e-002, -8.74781515e-004,
          -1.84707157e-002, -2.31542513e-002, 5.17126499e-003,
          3.41879278e-002, -8.48594960e-003, 9.72122606e-003,
          -1.39746359e-002, -4.72815568e-003, -1.85963493e-002,
          -2.31170263e-002, 5.19249635e-003, 3.38195711e-002,
          1.61146221e-004, -3.69324978e-003, -3.65771656e-003,
          1.65698188e-003, 1.83772750e-003, 1.85782427e-003,
          1.83728139e-003 ]
      - [ 6.08351864e-002, -3.41468677e-002, 4.11142111e-002,
          1.11820824e-001, 1.50995150e-001, 1.10934317e-001,
          1.08144566e-001, -1.82065833e-002, -1.39748780e-002,
          -1.95429958e-002, -1.95725244e-002, -2.16789450e-002,
          -1.88518204e-002, -1.95633397e-002, -1.95725244e-002,
          -1.17827460e-001, -1.96746998e-002, -1.95771195e-002,
          -1.95725244e-002, -1.48994952e-001, -1.93527490e-002,
          -3.41617391e-002, -1.95725244e-002, -2.78124195e-002,
          -2.43203156e-002, -3.12526301e-002, -2.04248540e-002,
          5.84944859e-002, -3.56721543e-002, 5.11810929e-002,
          2.75373086e-002, -2.25258041e-002, -2.09507179e-002,
          -2.92149764e-002, -1.78625919e-002, 5.83117865e-002,
          -3.49663310e-002, 5.10809720e-002, 2.73811724e-002,
          -2.13617980e-002, -1.93176921e-002, -2.83047687e-002,
          -1.80893950e-002, 5.85783459e-002, -3.73473354e-002,
          5.09185456e-002, 2.73412950e-002, -2.23454647e-002,
          -2.34537199e-002, -2.93010473e-002, -2.11194213e-002,
          5.86201213e-002, -3.62355001e-002, 5.10844886e-002,
          2.67805588e-002, -2.75228117e-002, -2.80947555e-002,
          -3.12474500e-002, -2.46721897e-002, 5.93060404e-002,
          -3.53571624e-002, 5.12309782e-002, 2.63493303e-002,
          -2.41167676e-002, -2.98713166e-002, -3.04455198e-002,
          -2.62027103e-002, 5.92962839e-002, -3.46058197e-002,
          5.12877814e-002, 2.65881214e-002, -2.38864347e-002,
          -2.99622156e-002, -2.98792347e-002, -2.49521695e-002,
          5.90699688e-002, -3.62244733e-002, 5.11780754e-002,
          2.71814186e-002, -2.42612604e-002, -2.53536142e-002,
          -3.04114278e-002, -2.26857644e-002, 5.84403872e-002,
          -3.42333168e-002, 5.12309894e-002, 2.73957849e-002,
          1.32723275e-004, -2.23252852e-003, -6.08608825e-004,
          5.32053178e-004, 7.34777597e-004, 7.06595602e-004,
          7.34984467e-004 ]
      - [ -1.60897255e-001, 6.87181890e-001, -1.59980044e-001,
          -1.10577727e-002, 8.45102444e-002, -1.60533234e-001,
          -1.59976244e-001, 5.81533849e-001, 1.01063633e-002,
          -1.59964517e-001, -1.59976244e-001, 6.74896121e-001,
          -1.33076563e-001, -1.42304882e-001, -1.59976244e-001,
          8.32192302e-002, -4.11465704e-001, -1.35367513e-001,
          -1.59971282e-001, 4.79394421e-002, -1.93209112e-001,
          2.97660559e-001, -1.59290642e-001, -2.62378007e-001,
          7.01231956e-001, -3.01325589e-001, 6.37967050e-001,
          -1.44052267e-001, 4.84141940e-003, -1.57390371e-001,
          4.33762185e-003, -2.67812610e-001, 4.51242208e-001,
          -3.35543364e-001, 2.63518006e-001, -1.13277912e-001,
          4.44481857e-002, -1.42103583e-001, 2.25050915e-002,
          -3.24366152e-001, 4.50819507e-002, -3.84252548e-001,
          -1.40808627e-001, -6.76464587e-002, 1.01243377e-001,
          -1.25906840e-001, 8.12547877e-002, -3.59871596e-001,
          -8.76056105e-002, -4.00962442e-001, -2.11662427e-001,
          -8.31635222e-002, 4.87108864e-002, -1.29904106e-001,
          1.03684597e-001, -2.94188827e-001, 4.13009882e-001,
          -3.69055450e-001, 7.63809532e-002, -1.27148494e-001,
          -2.51701605e-002, -1.45671099e-001, 9.41526890e-002,
          -2.45671034e-001, 6.21554017e-001, -3.11726213e-001,
          4.81397569e-001, -1.48717582e-001, -2.91360188e-002,
          -1.59617275e-001, 6.87009096e-002, -2.08488911e-001,
          8.77838016e-001, -2.79977351e-001, 7.33762026e-001,
          -1.72071800e-001, -2.56913621e-002, -1.60271108e-001,
          6.58034235e-002, -2.18312278e-001, 8.45779717e-001,
          -2.77613938e-001, 7.92327583e-001, -1.77953765e-001,
          -3.72449458e-002, -1.60819128e-001, 3.38071771e-002,
          -6.43722862e-002, 1.19040631e-001, -5.39825521e-002,
          -7.57530145e-003, 2.22328957e-003, 2.52516684e-003,
          2.14131339e-003 ]
      - [ 5.08626215e-002, -6.71876445e-002, -9.64368805e-002,
          5.47892824e-002, -3.12786214e-002, -3.14761214e-002,
          -3.15650068e-002, -4.71072868e-002, -3.11228596e-002,
          -3.15572247e-002, -3.15650068e-002, 1.91871583e-001,
          -2.94100028e-002, -3.14909332e-002, -3.15650068e-002,
          1.03250161e-001, -3.08242664e-002, -3.12492549e-002,
          -3.15650068e-002, 2.39264712e-001, -3.05608977e-002,
          7.48867262e-003, -3.15650068e-002, 5.64680528e-003,
          8.40037614e-002, 6.06117865e-005, 6.49884120e-002,
          -1.02132626e-001, 6.35350943e-002, -1.23261847e-001,
          5.41369617e-003, 1.40860491e-003, 8.09723213e-002,
          -2.00244226e-003, 5.81691153e-002, -1.00891545e-001,
          6.47017807e-002, -1.23283401e-001, 5.34547353e-003,
          4.16638359e-004, 7.61160627e-002, -3.01230745e-003,
          5.37478663e-002, -9.92899910e-002, 6.67319149e-002,
          -1.23149067e-001, 5.75539842e-003, 1.96367339e-003,
          7.88155869e-002, -1.87211751e-003, 5.55360876e-002,
          -1.01593636e-001, 6.42139763e-002, -1.22811228e-001,
          6.92610629e-003, 7.66755920e-003, 9.01303813e-002,
          9.41787905e-004, 6.60680979e-002, -1.02272779e-001,
          6.32865056e-002, -1.22528456e-001, 7.26784673e-003,
          5.10384049e-003, 9.65209156e-002, 1.04970508e-003,
          7.53561929e-002, -1.02772683e-001, 6.26090169e-002,
          -1.22508563e-001, 7.02744024e-003, 3.70712578e-003,
          9.48537886e-002, 4.01453901e-004, 7.70727396e-002,
          -1.02620974e-001, 6.36020973e-002, -1.22893013e-001,
          6.16785046e-003, 2.86511192e-003, 8.91043767e-002,
          1.04802915e-004, 7.23736882e-002, -1.03884891e-001,
          6.19392507e-002, -1.22984432e-001, 6.07544556e-003,
          -5.85020892e-003, 2.23782025e-002, 1.09635768e-002,
          -3.55163543e-003, -8.01463705e-003, -7.47079076e-003,
          -8.45450722e-003 ]
      - [ -8.63716826e-002, 2.85616487e-001, 1.69765279e-001,
          2.72914022e-002, 5.52588189e-003, -3.93194884e-001,
          -4.41482663e-002, -2.02409521e-001, 7.23229349e-002,
          -4.41549867e-002, -4.41482663e-002, 2.18872428e-001,
          7.91590735e-002, -6.53941557e-003, -4.41089347e-002,
          1.07812893e+000, -3.10917109e-001, 4.38862257e-002,
          -4.41482663e-002, 6.04180038e-001, -1.41820088e-001,
          -9.80855227e-001, -2.41932154e-001, -2.48037186e-002,
          3.68145620e-003, -4.05803509e-002, -2.01579645e-001,
          -4.50981438e-001, -1.35786623e-001, -3.29630114e-002,
          4.25545663e-001, -2.05387846e-002, -5.62844463e-002,
          -5.22104092e-002, -3.04185510e-001, -4.18607652e-001,
          -9.49122831e-002, -3.07675786e-002, 4.17161405e-001,
          1.29089681e-002, 2.58644044e-001, -4.33825366e-002,
          -2.10335523e-001, -3.67804289e-001, -4.96037211e-003,
          -3.95372957e-002, 3.77196103e-001, 1.94643543e-003,
          2.44081289e-001, -2.89774351e-002, -1.40832970e-002,
          -4.19033080e-001, -1.30334660e-001, -7.89212883e-002,
          2.60129303e-001, 7.71610672e-003, 4.53413397e-001,
          -2.11367290e-002, 7.48605058e-002, -4.84810323e-001,
          -2.20173493e-001, -1.01117276e-001, 2.04035088e-001,
          2.75143199e-002, 4.50151414e-001, -2.04596203e-003,
          2.16243520e-001, -4.69218731e-001, -2.07684889e-001,
          -9.45999771e-002, 2.22284555e-001, 5.11215962e-002,
          5.90035975e-001, 1.26419151e-002, 2.86657244e-001,
          -4.09025311e-001, -6.72531724e-002, -5.85826039e-002,
          3.19886029e-001, 4.30478752e-002, 4.66688931e-001,
          -7.89763127e-003, 7.65004382e-002, -4.16315973e-001,
          -9.84183699e-002, -3.98603827e-002, 3.95618409e-001,
          1.01789013e-001, -1.11691701e+000, 2.13942334e-001,
          1.99022084e-001, 2.01218143e-001, 2.00646251e-001,
          2.00299412e-001 ]
      - [ 3.17188770e-001, 2.75674522e-001, 2.15008080e-001,
          4.49868679e-001, -5.07684350e-002, -1.94388360e-001,
          -1.93900287e-001, -4.52964902e-001, 4.49997419e-003,
          -1.93900287e-001, -1.93900287e-001, 3.36451054e-001,
          3.37085217e-001, -1.93306148e-001, -1.93900287e-001,
          1.09294593e+000, -1.72991037e-001, -1.94215238e-001,
          -1.93900287e-001, 2.74762154e-001, -1.62048593e-001,
          -7.19400525e-001, -1.93900287e-001, -4.13881958e-001,
          5.11571705e-001, -4.94431347e-001, 3.18886399e-001,
          3.65753859e-001, -5.98096335e-003, 6.32791296e-002,
          -9.80411917e-002, -4.34996843e-001, 2.12668106e-001,
          -5.22789359e-001, -1.15913227e-002, 3.86115551e-001,
          4.91744392e-002, 6.64084330e-002, -7.81102851e-002,
          -4.56974477e-001, 9.90247261e-003, -5.38906693e-001,
          -2.21528605e-001, 4.22279119e-001, 1.23697475e-001,
          6.17084317e-002, -9.33600292e-002, -4.29552317e-001,
          1.16775401e-001, -5.19894600e-001, -1.00570865e-001,
          4.22095150e-001, 1.41603157e-001, 6.09708056e-002,
          -1.12531453e-001, -4.02789831e-001, 4.36315924e-001,
          -4.93606538e-001, 1.53619006e-001, 3.98726553e-001,
          9.03751180e-002, 5.46856076e-002, -1.34727105e-001,
          -3.85879725e-001, 5.26343822e-001, -4.74849194e-001,
          3.40928435e-001, 3.61959517e-001, 2.68111713e-002,
          4.57588099e-002, -1.55243084e-001, -4.06036735e-001,
          4.73141849e-001, -4.65184331e-001, 4.96928275e-001,
          3.44823986e-001, -1.96158011e-002, 4.13629524e-002,
          -1.61014438e-001, -3.84271592e-001, 6.10832870e-001,
          -4.69240248e-001, 4.97730345e-001, 3.55432928e-001,
          -1.53935086e-002, 5.17958216e-002, -1.39467314e-001,
          3.09914630e-002, -1.00295879e-001, 5.09837940e-002,
          1.09990202e-002, 2.88915262e-003, 3.03691416e-003,
          1.39548164e-003 ]
      - [ 4.33278352e-001, -1.90899491e-001, -4.48662549e-001,
          9.82047021e-002, -1.81656703e-002, -1.82561800e-002,
          -1.82941239e-002, -1.40517373e-002, -1.80487875e-002,
          -1.82883926e-002, -1.82941239e-002, 1.48329347e-001,
          -1.69021767e-002, -1.82625037e-002, -1.82941239e-002,
          8.19163024e-002, -1.79779250e-002, -1.81533191e-002,
          -1.82941239e-002, 1.39247924e-001, -1.77973676e-002,
          5.96015854e-003, -1.82941239e-002, -2.44874731e-002,
          6.35110885e-002, -2.99796574e-002, 4.17088792e-002,
          -2.62478963e-002, -1.10658174e-002, -3.62416171e-002,
          -5.35622286e-003, -2.30901577e-002, 6.62971735e-002,
          -2.98066288e-002, 4.09208834e-002, -2.43756995e-002,
          -8.82298499e-003, -3.57245058e-002, -4.85366071e-003,
          -2.28485148e-002, 6.62643015e-002, -2.92246211e-002,
          4.37114909e-002, -2.21574418e-002, -6.17172476e-003,
          -3.49271521e-002, -2.94799823e-003, -2.24555600e-002,
          6.77513108e-002, -2.87221037e-002, 4.72327322e-002,
          -2.59032622e-002, -1.06860176e-002, -3.50674540e-002,
          -2.71273195e-003, -2.16626078e-002, 7.97407925e-002,
          -2.73881368e-002, 5.97175583e-002, -2.74850447e-002,
          -1.37504116e-002, -3.47624756e-002, -2.39803595e-003,
          -1.98877137e-002, 8.59200433e-002, -2.62638405e-002,
          6.80951774e-002, -2.60557495e-002, -1.14650698e-002,
          -3.44172940e-002, -1.93419703e-003, -2.13874020e-002,
          7.79041722e-002, -2.66525857e-002, 6.53752834e-002,
          -2.45380960e-002, -9.21675190e-003, -3.43372412e-002,
          -1.61489926e-003, -2.25285906e-002, 7.06774443e-002,
          -2.83007529e-002, 5.29043302e-002, -2.68989615e-002,
          -1.20140025e-002, -3.52993235e-002, -3.59656871e-003,
          -3.73604335e-002, 1.58040315e-001, 6.64688498e-002,
          -2.57111695e-002, -5.40319532e-002, -5.05839847e-002,
          -5.68215959e-002 ]
      - [ 6.11182638e-002, 1.02504212e-002, 4.16237004e-002,
          7.21790791e-002, 9.83832870e-003, 4.89620958e-003,
          4.90293978e-003, 9.77489445e-003, 1.44137396e-002,
          4.90829954e-003, 4.90293978e-003, 8.94055516e-002,
          3.54594402e-002, 5.60971815e-003, 4.90293978e-003,
          1.20261028e-001, 5.04000438e-003, 6.11741003e-003,
          4.90293978e-003, 1.26231253e-001, -1.47284284e-001,
          -3.49367946e-001, -1.40086874e-001, 7.54736830e-003,
          1.21604111e-002, 7.28113158e-003, 7.59809790e-003,
          -1.41439131e-002, 8.87622964e-003, -1.32082924e-002,
          -9.94020421e-003, 6.92821201e-003, 1.07897250e-002,
          7.22699519e-003, 8.87629483e-003, -1.36797586e-002,
          9.22993384e-003, -1.33859832e-002, -1.06838811e-002,
          6.62334915e-003, 1.07550230e-002, 7.03166332e-003,
          9.40168183e-003, -1.26885511e-002, 1.17349755e-002,
          -1.33014871e-002, -1.03079034e-002, 6.33003609e-003,
          7.86958542e-003, 6.96021458e-003, 8.36684648e-003,
          -1.44997640e-002, 7.81491958e-003, -1.34115946e-002,
          -9.50073637e-003, 7.67999655e-003, 1.32940793e-002,
          7.05201039e-003, 6.77124457e-003, -1.61577836e-002,
          5.80105092e-003, -1.36952382e-002, -9.23892204e-003,
          5.74386446e-003, 3.35455616e-003, 6.33494742e-003,
          2.79187551e-003, -1.50757981e-002, 6.94572786e-003,
          -1.37277329e-002, -9.44055710e-003, 5.21732448e-003,
          2.26584240e-003, 6.07057009e-003, 2.29267590e-003,
          -1.28694046e-002, 1.16742002e-002, -1.32156825e-002,
          -9.13771056e-003, 5.91953937e-003, 6.49120659e-003,
          6.57983823e-003, 5.14783710e-003, -1.33629926e-002,
          9.99678206e-003, -1.30033744e-002, -9.15061589e-003,
          -1.93960918e-003, 6.46329718e-003, 5.33882622e-003,
          -1.29246514e-003, -2.86380271e-003, -2.69618235e-003,
          -3.01005715e-003 ]
      - [ 3.41270238e-001, -1.49407923e-001, -2.50716358e-001,
          2.64554590e-001, -8.69438797e-002, -8.62082615e-002,
          -8.59552324e-002, -7.60089085e-002, -7.54176900e-002,
          -8.60820711e-002, -8.59552324e-002, 4.11418587e-001,
          -4.97814007e-002, -8.58705938e-002, -8.59552324e-002,
          2.06203744e-001, -8.49002451e-002, -8.54854435e-002,
          -8.59552324e-002, 4.20514047e-001, -8.50208849e-002,
          -1.23414360e-002, -8.59552324e-002, 2.20939657e-003,
          9.44754481e-002, -6.12399308e-004, 7.54837468e-002,
          -1.08716339e-001, 5.32195829e-002, -1.39810443e-001,
          -1.82691570e-002, 1.17726531e-003, 1.07718013e-001,
          -2.30113292e-004, 8.67033526e-002, -1.07765451e-001,
          5.49860187e-002, -1.40329733e-001, -1.89746264e-002,
          4.01815632e-004, 1.07896239e-001, 4.84816643e-004,
          9.67320502e-002, -1.04023010e-001, 5.95784970e-002,
          -1.40155405e-001, -1.78539529e-002, 1.63310161e-003,
          1.12240352e-001, 1.41732313e-003, 1.00022860e-001,
          -1.08765945e-001, 5.30012585e-002, -1.40619829e-001,
          -1.84848048e-002, 6.98939152e-003, 1.28524616e-001,
          4.93030110e-003, 1.18784569e-001, -1.09434858e-001,
          5.01514003e-002, -1.38482198e-001, -1.64751448e-002,
          2.24484922e-003, 1.24305792e-001, 3.11951851e-003,
          1.21986531e-001, -1.07082628e-001, 5.25955930e-002,
          -1.36351988e-001, -1.39110619e-002, -2.60617305e-003,
          1.02652192e-001, -8.74415055e-005, 1.07997611e-001,
          -1.04353957e-001, 5.59642315e-002, -1.35223940e-001,
          -1.21024419e-002, -5.28607657e-003, 8.25718418e-002,
          -1.81092671e-003, 8.51595551e-002, -1.08767793e-001,
          5.11503890e-002, -1.37179673e-001, -1.47419563e-002,
          -5.29325940e-002, 2.26157576e-001, 9.36449617e-002,
          -3.68905440e-002, -7.69698620e-002, -7.20927268e-002,
          -8.09167773e-002 ]
      - [ 3.59777570e-001, -2.35357463e-001, -4.48007733e-001,
          1.53909981e-001, -2.28600632e-002, -2.30880342e-002,
          -2.30473131e-002, -2.56745946e-002, -2.26406474e-002,
          -2.31858622e-002, -2.30473131e-002, 1.94853261e-001,
          -2.05355231e-002, -2.30761450e-002, -2.30473131e-002,
          1.53986558e-001, -2.26220228e-002, -2.28497703e-002,
          -2.30473131e-002, 1.87808707e-001, -2.24445630e-002,
          -2.19346508e-002, -2.38697138e-002, 3.70409451e-002,
          7.31732771e-002, 3.88458334e-002, 6.93388209e-002,
          -1.11339770e-001, 2.44636778e-002, -9.87801030e-002,
          1.44993113e-002, 3.30017209e-002, 7.77048618e-002,
          3.71063761e-002, 6.88399151e-002, -1.09245159e-001,
          2.67470032e-002, -9.85103548e-002, 1.48633178e-002,
          2.73083746e-002, 5.59741631e-002, 3.29063870e-002,
          5.36253154e-002, -1.06334232e-001, 2.99228318e-002,
          -9.61743295e-002, 1.81266591e-002, 2.11255252e-002,
          2.85893902e-002, 2.94384789e-002, 3.40956338e-002,
          -1.06451310e-001, 2.86106467e-002, -9.48724672e-002,
          2.07126793e-002, 2.34679952e-002, 2.16468554e-002,
          2.97996402e-002, 3.29567567e-002, -1.07580610e-001,
          2.65738666e-002, -9.30840671e-002, 2.30555199e-002,
          1.86380837e-002, 2.60163080e-002, 2.90095545e-002,
          4.21307385e-002, -1.05961286e-001, 2.86772978e-002,
          -9.23538208e-002, 2.36671995e-002, 2.03960333e-002,
          3.52318473e-002, 3.02480049e-002, 5.21118417e-002,
          -1.07085563e-001, 2.89539415e-002, -9.30030048e-002,
          2.22961418e-002, 2.58274619e-002, 5.06810136e-002,
          3.42162587e-002, 6.18459880e-002, -1.09925695e-001,
          2.52842363e-002, -9.62329656e-002, 1.81410052e-002,
          -3.44422087e-002, 1.10774703e-001, 6.54665753e-002,
          -1.56361405e-002, -4.22669053e-002, -3.89811024e-002,
          -4.49148677e-002 ]
      - [ 1.03574358e-001, -2.98173904e-001, -1.34268731e-001,
          2.72442967e-001, -6.25153407e-002, -6.17692694e-002,
          -6.18812107e-002, -5.02504632e-002, -6.12925626e-002,
          -6.18655868e-002, -6.18812107e-002, 3.92619401e-001,
          -5.81080988e-002, -6.17879257e-002, -6.18812107e-002,
          2.11782888e-001, -6.11494817e-002, -6.14690259e-002,
          -6.18812107e-002, 3.86368454e-001, -8.25716183e-002,
          6.90981396e-005, -6.41103238e-002, -7.31712254e-003,
          4.55415398e-002, -1.11895232e-002, 3.37328203e-002,
          -1.02623455e-001, -2.29136329e-002, -6.35603890e-002,
          8.35086256e-002, -8.40908755e-003, 5.39469086e-002,
          -1.19090043e-002, 3.59352417e-002, -1.01046361e-001,
          -2.11368948e-002, -6.35566860e-002, 8.37945119e-002,
          -9.21210367e-003, 5.96085079e-002, -1.14131803e-002,
          4.54891957e-002, -1.01663403e-001, -2.15345770e-002,
          -6.42879531e-002, 8.50490034e-002, -3.98489879e-003,
          8.12716633e-002, -9.13052820e-003, 5.74306548e-002,
          -1.08330198e-001, -2.89326645e-002, -6.86074719e-002,
          8.00199136e-002, 1.86599314e-003, 1.04596443e-001,
          -5.88013930e-003, 7.39107653e-002, -1.11265786e-001,
          -3.28458473e-002, -7.05281049e-002, 7.75983334e-002,
          4.71673884e-005, 1.04827374e-001, -5.64094912e-003,
          8.00534114e-002, -1.10448606e-001, -3.22778001e-002,
          -6.96923584e-002, 7.87172019e-002, -4.18803608e-003,
          8.82893354e-002, -7.55616464e-003, 7.02929497e-002,
          -1.07534826e-001, -2.85691302e-002, -6.60568774e-002,
          8.39095861e-002, -6.67434884e-003, 6.37505800e-002,
          -9.56669170e-003, 5.04059531e-002, -1.06174573e-001,
          -2.69993562e-002, -6.45536706e-002, 8.36187303e-002,
          -1.79373026e-002, 4.00002822e-002, 4.11055163e-002,
          -5.20768389e-003, -1.94304548e-002, -1.76989529e-002,
          -2.08313689e-002 ]
      - [ 8.03321362e-001, 5.16377628e-001, 1.76346630e-001,
          9.21835959e-001, -2.27175966e-001, -4.17171508e-001,
          -3.99371624e-001, -3.23914915e-001, -9.18960795e-002,
          -3.99371624e-001, -3.99371624e-001, 9.17393208e-001,
          5.65024376e-001, -3.98048073e-001, -3.99371624e-001,
          6.41906738e-001, -3.83231938e-001, -3.94068480e-001,
          -3.99371624e-001, 5.61269760e-001, -3.59508455e-001,
          -1.12230778e-001, -3.99371624e-001, -3.97204310e-001,
          1.96395963e-001, -4.16339785e-001, 3.96959901e-001,
          4.34836328e-001, 6.34269938e-002, -4.38965373e-002,
          -9.45199579e-002, -3.76408756e-001, 1.11577518e-001,
          -4.17973012e-001, 2.73121506e-001, 4.37707186e-001,
          4.06474434e-002, -3.79560068e-002, -1.05918646e-001,
          -3.77059519e-001, 7.42557412e-003, -4.20925796e-001,
          1.45651862e-001, 4.63017464e-001, 4.57660593e-002,
          -3.14915664e-002, -1.25050083e-001, -3.81213546e-001,
          -6.25019968e-002, -4.21430677e-001, 1.44330487e-001,
          4.60474819e-001, 6.11160807e-002, -3.75855342e-002,
          -1.75650328e-001, -4.01330680e-001, 1.30414948e-001,
          -4.09254640e-001, 3.53353798e-001, 4.52249378e-001,
          2.50092614e-002, -3.85511145e-002, -1.75173849e-001,
          -3.47956866e-001, 2.54486948e-001, -3.89444560e-001,
          4.35800195e-001, 4.37688410e-001, 3.82652692e-002,
          -4.74507324e-002, -1.66147128e-001, -3.52442056e-001,
          1.96000099e-001, -3.78235281e-001, 4.94676858e-001,
          4.36287373e-001, 6.81938976e-002, -5.10452986e-002,
          -1.35103732e-001, -3.52167696e-001, 1.85489982e-001,
          -3.93341511e-001, 4.34287667e-001, 4.30418044e-001,
          9.07331184e-002, -5.42353354e-002, -1.30803883e-001,
          -4.51793224e-002, 4.40711439e-001, -3.28200646e-002,
          -7.35019520e-002, -9.65477452e-002, -9.39782485e-002,
          -9.86843482e-002 ]
      - [ -3.76826078e-002, -2.15100572e-001, -1.00376606e-001,
          2.63860434e-001, -4.30293055e-003, 5.82176307e-003,
          5.81265567e-003, -1.55670904e-002, -3.73537443e-003,
          5.81265567e-003, 5.81265567e-003, 1.95604609e-003,
          -1.35914698e-001, 5.81265567e-003, 5.81265567e-003,
          4.13623154e-002, 8.63543525e-003, 5.81265567e-003,
          5.81265567e-003, 1.34867445e-001, 3.86858638e-003,
          5.80665143e-003, 5.81265567e-003, 2.47082636e-002,
          2.82853991e-002, 2.23217010e-002, 3.27472799e-002,
          1.14557900e-001, 5.05035929e-002, -1.02139734e-001,
          -1.60765454e-001, 1.80464070e-002, 1.97007116e-002,
          2.03117728e-002, 2.56448183e-002, 1.11156404e-001,
          4.84416187e-002, -1.02571048e-001, -1.56492278e-001,
          1.94117241e-002, 2.26609558e-002, 2.12177970e-002,
          2.54895333e-002, 1.07951462e-001, 4.78185564e-002,
          -1.04062848e-001, -1.49514407e-001, 3.07193212e-002,
          4.71471697e-002, 2.58317739e-002, 3.11591085e-002,
          8.87224600e-002, 3.83223742e-002, -1.03100628e-001,
          -1.42110482e-001, 3.62249315e-002, 4.53885347e-002,
          2.75852662e-002, 3.02541293e-002, 9.14739892e-002,
          3.99179570e-002, -1.02664739e-001, -1.41920239e-001,
          2.10262295e-002, 2.11573057e-002, 2.25455351e-002,
          2.46301759e-002, 1.04073815e-001, 4.47973460e-002,
          -1.02242559e-001, -1.48308903e-001, 1.81688368e-002,
          2.08905246e-002, 1.96852349e-002, 2.63856128e-002,
          1.14781469e-001, 5.15956320e-002, -1.02980830e-001,
          -1.58111647e-001, 1.85209494e-002, 2.44946498e-002,
          2.06270516e-002, 3.14861611e-002, 1.12413272e-001,
          4.90427837e-002, -1.01979159e-001, -1.61080465e-001,
          -8.33888818e-003, 9.07219723e-002, -1.39570870e-002,
          -1.65206380e-002, -1.72895752e-002, -1.73251946e-002,
          -1.72905792e-002 ]
      - [ 2.35760197e-001, 4.42397118e-001, -9.54475440e-003,
          5.75246394e-001, -3.06762218e-001, -3.27079922e-001,
          3.94243421e-003, -8.39621007e-001, -1.45059094e-001,
          3.94243421e-003, 3.94243421e-003, -3.22728962e-001,
          -2.20329732e-001, 3.94243421e-003, 3.94243421e-003,
          1.64316487e+000, 1.42077789e-001, 3.94243421e-003,
          3.94243421e-003, 1.21616267e-001, 2.36177891e-001,
          -1.08501244e+000, -1.67898893e-001, -8.90836585e-003,
          -3.09517682e-001, 4.62167859e-002, -1.55724600e-001,
          1.37125418e-001, -1.28110394e-001, -7.35446438e-002,
          9.92623419e-002, -7.52755813e-003, -2.71577328e-001,
          5.61333038e-002, -1.25364810e-001, 8.64031017e-002,
          -1.43334344e-001, -6.16840385e-002, 2.29807049e-001,
          1.03096046e-001, 2.81945407e-001, 1.12564385e-001,
          4.40063104e-002, 2.81474050e-002, -1.69877306e-001,
          -5.04296757e-002, 2.94959337e-001, 2.59259939e-001,
          6.29420280e-001, 1.09364979e-001, -5.62652852e-003,
          -8.85267276e-003, -1.03570811e-001, -4.06846888e-002,
          1.78730756e-001, -1.46809146e-001, -5.48853457e-001,
          2.30103228e-002, -3.70768249e-001, 4.01701659e-001,
          1.09302044e-001, -2.79723704e-002, 5.42246625e-002,
          8.10467359e-003, -1.50525078e-001, 5.63678471e-003,
          -4.22212094e-001, 3.48122865e-001, -3.60429956e-004,
          -3.55355777e-002, -3.42071354e-002, 3.80330868e-002,
          7.65508693e-003, 5.86541593e-002, -1.02321692e-001,
          2.08110660e-001, -1.21655904e-001, -6.62788078e-002,
          -6.40585050e-002, 1.68151408e-002, -1.11529931e-001,
          5.77414334e-002, -8.23880881e-002, 1.42573118e-001,
          -1.33806184e-001, -8.54037628e-002, -7.10554095e-003,
          1.85407609e-001, 1.49429694e-001, -4.96582389e-002,
          -8.11211839e-002, -6.41203895e-002, -7.58569390e-002,
          -6.40796572e-002 ]
      - [ -1.14276097e-003, 1.51582047e-001, 2.91065685e-002,
          6.35565698e-001, 2.91065685e-002, 2.76836269e-002,
          2.91065685e-002, -9.38435972e-001, 2.91065685e-002,
          2.91065685e-002, 2.91065685e-002, -1.90115005e-001,
          2.91065685e-002, 2.91065685e-002, 2.91065685e-002,
          7.38411605e-001, 3.90203074e-002, 2.71421839e-002,
          2.91065685e-002, 6.54844940e-001, 2.87862644e-002,
          -1.49351513e+000, 2.91065685e-002, -1.31906811e-002,
          -1.73053622e-001, -3.34986262e-002, -2.60541052e-001,
          2.64271647e-001, 2.93743730e-001, 2.61087455e-002,
          -1.72398314e-001, -2.62020491e-002, -1.67702451e-001,
          -2.51133796e-002, -1.99397981e-001, 2.49011487e-001,
          3.05443615e-001, 1.95876602e-002, -1.38113007e-001,
          1.14984754e-002, 3.44336964e-002, 2.19813827e-003,
          -6.58796802e-002, 2.35102966e-001, 2.72967309e-001,
          1.85949286e-003, -1.46319345e-001, 6.11432716e-002,
          1.99196875e-001, 1.98846944e-002, -3.12221739e-002,
          2.41176799e-001, 2.97684073e-001, 7.05385208e-003,
          -1.18730344e-001, 2.72924881e-002, -5.91969639e-002,
          -4.05635394e-004, -1.72589496e-001, 2.38329783e-001,
          2.90850431e-001, 1.29993139e-002, -1.27054214e-001,
          -4.04104106e-002, -2.72156447e-001, -4.31747437e-002,
          -3.40649366e-001, 2.55238831e-001, 3.09926927e-001,
          2.11309642e-002, -1.58566147e-001, -7.10109994e-002,
          -4.02224630e-001, -5.90868779e-002, -3.60530019e-001,
          2.61059403e-001, 2.68941551e-001, 1.30683547e-002,
          -2.34711424e-001, -5.60731590e-002, -3.19368929e-001,
          -4.94859703e-002, -2.99931824e-001, 2.80662835e-001,
          3.11890244e-001, 2.26544458e-002, -2.18421474e-001,
          4.90198806e-002, -7.91916549e-002, -3.03112511e-002,
          1.02363756e-005, 2.21895445e-002, 1.59137733e-002,
          2.23693512e-002 ]
      - [ 2.64545041e-003, -1.41807422e-001, -3.14981133e-001,
          1.63670093e-001, 7.24955602e-003, 7.27887684e-003,
          7.27506261e-003, 8.81255511e-003, 7.27714272e-003,
          7.27506261e-003, 7.27506261e-003, 7.63974059e-003,
          7.41864368e-003, 7.27506261e-003, 7.27506261e-003,
          2.53429245e-002, 1.09383566e-002, 7.27506261e-003,
          7.27506261e-003, 1.35466501e-001, 7.59586738e-003,
          7.25236675e-003, 7.27506261e-003, 6.13269024e-003,
          -2.76281149e-003, 7.16897147e-003, 3.48672946e-003,
          7.36731514e-002, 2.21246760e-003, -1.52675901e-002,
          -7.70924985e-002, 5.16806450e-003, -5.91052789e-003,
          7.11542275e-003, 3.17862350e-003, 7.17989877e-002,
          9.69425484e-004, -1.53856287e-002, -7.51387700e-002,
          6.71810843e-003, -6.14451477e-004, 8.29397514e-003,
          6.40134187e-003, 7.03728497e-002, 6.29472663e-004,
          -1.58560108e-002, -7.18004405e-002, 1.14702936e-002,
          1.18765365e-002, 1.00209145e-002, 9.68800765e-003,
          6.24306351e-002, -3.33958771e-003, -1.57863684e-002,
          -6.92240372e-002, 1.20432368e-002, 1.09327696e-002,
          1.01466468e-002, 8.11099354e-003, 6.36283010e-002,
          -2.53083371e-003, -1.56828910e-002, -6.92131445e-002,
          6.75513037e-003, -4.11506183e-003, 8.05336330e-003,
          1.68953731e-003, 6.91072270e-002, -3.43145308e-004,
